{"layer1": {"W": [[0.05595790396635536, 0.05689323033107063, 0.06674187918560354, 0.04087408508844073, 0.05441392374879475, 0.05581790548686136, -0.07242987957567432, -0.021081411070711653, 0.00800624355354028, 0.0803674651742344, 0.026486008500672287, 0.06895494103910646, 0.06878234361691823, 0.06303124810670235, 0.01249740312728026, 0.019288415981650125, 0.04336870447627554, 0.07854443501732059, -0.06963525108640589, 0.026810315808179594, -0.08026342818814713, 0.03098996545519432, 0.044770098639273254, -0.016890866937683297, 0.06428750767575997, 0.0767777819326474, 0.033429576426166535, 0.04336995915100182, 0.028274807373174296, 0.042757625636631214, -0.0056742940643628725, 0.019148495559681303, 0.07748444478083244, 0.0016941121932957381, -0.02859504948076072, -0.08016495612031589, -0.00875592553230825, -0.04655117419110153, -0.07136032699763381, -0.034129356840093786, -0.055892555124999896, -0.04073652329150579, 0.013825030084619841, -0.07711693304114811, -0.08069794966962836, 0.06282821703714084, -0.04007414962730344, 0.06766664307359402, -0.07446483636080867, -0.062248382229281016, -0.02053722127474484, -0.07103543688890998, 0.05276116044155543, 0.07997371332371664, -0.05856094830612569, 0.0024220783300265974, -0.031148278369873085, -0.0803757711536413, -0.07982237205409053, 0.04228798939258799, 0.009399897999940746, 0.02242779372314349, 0.05427323591333988, 0.07927525434852489, 0.02189330426543426, -0.08082214391267416, 0.022539032980195273, 0.014709341852741684, -0.058206979046309115, -0.028815188951618657, 0.055887238945987655, -0.03103477379056801, -0.07675222862717672, -0.04325889266801944, 0.04039643797499491, 0.0799942486060104, -0.017408260046681626, 0.025482453664866844, 0.048114739459346495, 0.008850860153768458, 0.06681620834788518, 0.018976241651572995, 0.07696112989427525, -0.06760473231839073, 0.0668024032327707, 0.007924654438247913, 0.038947674904391744, -0.07205696206263647, 0.06642523896843444, -0.04374592477696449, -0.0809544251513582, 0.034235696201643934, -0.054060077255898675, -0.00194797921366352, -0.07298406267724884, 0.048000735267573286, -0.037284896006556205, 0.03528076352953069, 0.044283310297776185, 0.013135068905043928, -0.061006127989341116, -0.05669938733443994, -0.07086115871477648, 0.02765973350220874, -0.06678003034560877, -0.023062036505145066, 0.03209096964561617, -0.0520932342148573, 0.0230597263908337, 0.020113188615734273, -0.0781247996736716, 0.06411666165129931, -0.003932994667759732, -0.04127192766246595, -0.004669142000138682, 0.0011925908814462843, -0.03864008999244718, -0.031893124908927574, -0.05692848766900373, 0.04266392936980283, 0.031128035332725817, 0.051274733375975295, -0.015287707520058258, -0.05483785292036837, 0.07208413836411376, -0.0668456150439974, -0.060890495334931495, 0.006547807148227697], [0.032451108611831814, -0.0008897486278518496, 0.0060748018338035725, -0.03128295748900265, -0.024029914503358014, 0.0008855154227660894, -0.05479955980629575, -0.04590665720620806, -0.03418042605300639, -0.028559701090952717, -0.020988333614723013, 0.015876380038350638, 0.05983638467074817, -0.015655087926762193, 0.0017498365349741113, -0.010507882961293166, -0.06730356997465728, 0.06645014039928682, 0.023023779050714913, -0.054294476869769, -0.055050928361778176, 0.02113513586793414, 0.05609134477385894, -0.00500901244607857, 0.035507629280905034, 0.025476657365943914, 0.06342725172650532, -0.030263959758030826, -0.019793077484414077, 0.05568071984181677, 0.030217109920504193, 0.07723769928319174, 0.04956646222734726, 0.07016580921826746, -0.007640620659579031, 0.05601593898272236, -0.014704157264136972, -0.02007428733563129, 0.07133866698753774, 0.015474506270385338, -0.0714037383130039, 0.05606801829933389, -0.014293896557146621, -0.03325571034437671, -0.04033836493174325, -0.027088356191013185, -0.0674997603548841, 0.07328817646479391, 0.010149863394131278, -0.051759993652111425, -0.03728428140794906, -0.0676146876689619, 0.07041729941545322, 0.019164745372848485, 0.07905113938275357, 0.08025238028191156, 0.06501953493828261, 0.050059493780337916, -0.04470944291394206, 0.029717866013462865, 0.010649201213815698, -0.026619248665035115, 0.03947055392963998, 0.001590659028545785, -0.02495299054871033, -0.012892822944784055, -0.02840136159275844, -0.0724944134889346, 0.03320106890881476, 0.040715431314275935, -0.012093574092974707, 0.020284661432519405, -0.06760563257659166, -0.07140501470661707, 0.003462535499862071, -0.06935541494746864, -0.07395355646548715, -0.030057354131825295, 0.05437248094002331, 0.041896718151456055, 0.012708799551342381, -0.03173021853002772, 0.05149764879821542, -0.006134604445909797, -0.03191348328441792, -0.017898948905022152, -0.024323105012778082, -0.0487873998415802, -0.042511348327741026, 0.02136951973440844, 0.0007058821529688092, 0.07312369114018843, 0.05348967219351414, -0.07960342427991908, 0.07245360517990168, -0.03483691637404754, 0.009792879120090414, 0.022822186001527883, -0.020948022026580367, -0.060181299043215064, -0.06723479438388524, -0.07816984106458, -0.03998436594144558, -0.02400418336909664, -0.07427663999481698, 0.029149804966061704, 0.0057921222099311664, -0.04333451183026154, 0.02124792141427334, -0.00924992981951614, 0.0035041447364412698, 0.05506278613673746, 0.043589928390775995, 0.06802060600509677, -0.018355894948560436, -0.014163870495301628, -0.028415511214041657, 0.022110063540508276, -0.08050326152783838, -0.0646018533378537, 0.05854982211076662, -0.0693358871935562, -0.06253023851408551, 0.04747850455713942, -0.06377038745714911, 0.06339838218211616, 0.018454322886885102, 0.07695696976530514], [0.026426356094093204, -0.04823165920063942, 0.0701504968300852, -0.02265976544353713, 0.02352718694390725, -0.05555611672849442, 0.009586911226588932, 0.026554739975542405, 0.06697127321482574, -0.047754872125873864, -0.01050663570548968, 0.023168907847561884, 0.04114604980585396, -0.014393888920907025, 0.047972490479141955, 0.035901534509648156, 0.010770586395092402, 0.024018771004161638, -0.05843034432967313, -0.007075163596739667, -0.031207787791083783, 0.0641782256254641, 0.0648811434142853, -0.047331441755991216, -0.029769714208060072, -0.05646018905971248, 0.019013135818355023, 0.03805057748718271, -0.013215219491049715, 0.04944943854747477, -0.035460368311913244, 0.02292930656170568, 0.08052867846142239, 0.007357690151893734, -0.022219960547234477, -0.06254583879763544, -0.03231191840110935, -0.0714214865577385, 0.0808638220241123, 0.006784826181386205, 0.04371350407595813, 0.03938644836432846, 0.07855848533752038, -0.07823514965879563, 0.006706590629674991, 0.07722450470511849, 0.018649648735120414, -0.03411748339603349, 0.0439476717985022, -0.06458684860382541, -0.04449443799631413, 0.03879151281464267, -0.038162669536075104, 0.08106775862686766, -0.04625901797314253, 0.01729986100389687, -0.04928090328845959, 0.033969699407951026, -0.06080768734298195, 0.05095137059105617, -0.027341660761118013, -0.042489296267791334, -0.07268922739848632, 0.06130832508486439, 0.016515587661108166, 0.017875092429297607, 0.06387175104469878, -0.03473608993650178, 0.04564536256621374, -0.008983771007607638, 0.07282848158662292, -0.07743254519448434, 0.04483350501335964, -0.0682812333375046, -0.0807524629631286, 0.0015437878189553111, -0.020163575177984533, 0.027346552495843585, -0.06841050365430565, -0.023169890553006382, 0.0691531039073282, 0.05655023166983761, 0.02010351522469009, 0.04282869344418892, -0.0057090021482581466, -0.02157477539671948, -0.07898037577369883, -0.03595092727623581, 0.07904122706426936, -0.07536023600597065, 0.0164064212282288, -0.004945237277771519, -0.04155593180137606, 0.07766738433437526, 0.004822176469686093, 0.06200501588255103, -0.07659634785535052, 0.00598126959902287, -0.059535133822921305, 0.07830349277346149, 0.07633564745373939, -0.018135518638550466, -0.07656758862160881, 0.054013770654190024, 0.006887506821073877, -0.00664359550434078, 0.01721088194296115, -0.013846795463283962, -0.035729513561145516, -0.052237022649476564, 0.024500164186408102, -0.006739241388918418, -0.006501222940529905, 0.0012423529848027831, -0.038676910329671466, -0.007757876392601018, -0.04885152531237919, -0.060929185792498175, -0.03593072955686572, -0.018612686027698312, 0.07635057701977518, -0.03678751502314459, -0.053408168088224864, 0.06417815504509214, 0.06714895477729499, 0.04095331884518809, 0.0020041396801005057, -0.04087344850318977], [0.06577556573736362, -0.0615123260614292, 0.07135893937745375, 0.03956704968353836, 0.014513661856272397, -0.02300328357781331, 0.08087902167989094, -0.07383142192839005, -0.022029398805236133, 0.05547216275030814, -0.06166933968259812, -0.07944069097720491, -0.07287431978910262, -0.06693712467496284, -0.033516870681085935, -0.03629313135347514, 0.008904084124304573, 0.07401095587465259, 0.07596428962766225, -0.04024456036011788, 0.02147805911826617, -0.04503130431706, -0.07358861704727594, 0.004203689565891858, -0.03772087377900915, 0.021225569816388706, -0.07781867451527567, 0.03071355585039394, -0.014762227981955811, -0.07893279528629472, -0.06948257208235502, -0.009075501741801578, -0.027941785894495128, 0.05482718110673074, -0.0072283533380270715, -0.07120347213711307, -0.06927900291875694, -0.06800814724157182, 0.01562775117008297, -0.03906828324852353, -0.0784672437684117, -0.010317214312426548, 0.0631604525973325, 0.05102556792568802, 0.013795126052202164, 0.0690497884865883, 0.07178488595297561, -0.07488075624136828, 0.020813649353751545, 0.047839317964760264, -0.062061467965551564, -0.019672711198440065, 0.03523623912196057, -0.009473132188431002, 0.0318104655784715, -0.06580814068822313, 0.06887398963476149, -0.044358767442299524, -0.009968159576662167, 0.03177554286656789, 0.03873742561329929, 0.025226929040761667, -0.0007890689318107297, 0.03950431198628929, 0.06555523934630197, -0.0405734561551523, -0.04007906711516412, 0.06339265508765529, 0.03176547620432105, -0.034435069993322374, -0.000681888138899911, 0.0022001422019579664, -0.06278443766373634, 0.04149152181085301, -0.03870490801233772, -0.026879998821586558, 0.042231469996879684, -0.007097663052214459, 0.07180387075950326, 0.05231997976812797, -0.08032879358816104, 0.03878817340489582, -0.012023556969293081, -0.021293895739617014, -0.05712143074447196, -0.07876532145030281, -0.06845960179241227, 0.03550516629107932, -0.054920112206096994, 0.02315180553538254, -0.03133310038469907, -0.07679294480501256, 0.07558066992408968, -0.0726605018925305, 0.014172093365560912, 0.03268294927812365, -0.07811111792507869, 0.05568439671217193, 0.007693863257128092, -0.017001321211571177, -0.05786037220656007, -0.035370544264772416, -0.04288324235170808, -0.03433849074610882, 0.07727689938162202, 0.0458713306663924, 0.028185650539290744, 0.05954026945213611, -0.015603067642104534, -0.0006549695848583614, 0.022550427945983012, 0.06575635752931858, 0.02400163564831767, 0.02289340989898145, -0.055757805402013805, 0.0747867962750722, -0.0722560044899962, -0.004080768355140679, -0.060587754307041275, -0.08029712170077336, -0.06156948560248431, 0.07196335089057379, 0.016719824815647835, 0.07521097917463249, -0.02182776435794246, 0.027192731309264737, 0.03938608347616834, -0.06354729738687799], [0.03895714585656482, 0.05846447575622005, 0.06437895081508627, -0.013524623502552346, -0.07317046612143088, -0.07026141729134294, -0.022678252816074912, -0.02879953955696997, 0.08009801921352702, -0.004407486419578541, -0.010323573807360861, 0.07948963782436344, 0.019354204818141207, -0.011987434255760848, -0.0001882026682016591, 0.005111521820630835, 0.019246884713700327, -0.06774687105049923, 0.006396985093581178, -0.007798294813969542, -0.0622316472892588, 0.046072892739379395, 0.011113701453038194, 0.032279812477838926, 0.006160763640323516, 0.052907794641151334, 0.022293285160415524, -0.056397154352218704, 0.0025155052985975784, 0.02893206893476738, -0.04496417001976629, -0.06619884569248541, -0.04698725508493646, 0.06958004790225711, -0.02422613055394695, -0.05019608523633071, -0.032993301231863996, 0.006360092989984856, -0.04319744481269594, -0.07735993707431255, -0.04587522504682319, -0.05610080413969659, -0.029274032833906102, -0.06932176332302697, 0.0633705100652392, 0.0332148533082946, -0.041659222167366, 0.06857636958716548, 0.044002184703254316, 0.06159362306318583, 0.015484936995939946, 0.05266806779994479, -0.04384162538159491, 0.07387637713230072, -0.03139510377452602, -0.002421567907501171, -0.03423396468263485, 0.018172949419911835, -0.04684050962192637, -0.010320102637802142, 0.03584732632996837, -0.03364477753280055, -0.005500206508618918, -0.013499863840089513, 0.04892869280317949, 0.03388889141361889, 0.07682262950947638, 0.017317511782549297, -0.05239374367990979, -0.05205760299813478, 0.042728736459464844, -0.05113651692627329, 0.05943245321642093, 0.013739557194273874, -0.0063268322123055665, -0.04602804710440879, 0.03880381763376009, -0.010382761540922214, 0.06727170813227065, -0.01031715039956313, -0.0515211467774927, 0.07489530000989258, 0.0047975659068870274, 0.029156404433790986, 0.059578313054322984, -0.0035543942065881518, -0.06558297906304801, -0.06073974131471094, 0.05196626614917346, -0.061370592398922674, -0.02811494820768963, 0.06954646554483349, 0.018528794412730643, -0.0053398513781892365, -0.0016351597623108644, -0.011780359803592391, 0.03118690522369806, -0.04632628866999916, 0.026656257502145828, 0.07186549316658722, -0.07380753238945147, -0.0675533283784091, 0.040379314404779265, -0.031870551409749016, 0.0006788734764914539, -0.048419003761880415, 0.07505956073186446, -0.0705693912632329, -0.02574688092819219, 0.03944457402418465, 0.054557926874983426, 0.07062066289984217, 0.07445680506315569, -0.02536578717436462, 0.009600884461952355, 0.03429115323512674, -0.06551855099648504, -0.03886790033448884, -0.01352848304843833, 0.06665983564322922, 0.053649710390233085, 0.024533758189250132, 0.007168153479069891, 0.027447186561057102, -0.06976673841794562, 0.03890724844263681, 0.02647422872616048, -0.002491210695604179], [-0.07986912483762734, -0.050157375299723125, 0.026546808572197433, -0.005778430912851143, 0.004873321192698787, -0.0005440202655131315, 0.0676358917796141, -0.002202203286315832, 0.006692627229965109, 0.03762019198644097, 0.0791450846263261, -0.05177449764848806, 0.01906472725082306, 0.06445742310282837, 0.036103240496045796, -0.03794770571758583, -0.02808702910763434, -0.048547632400451825, 0.061960948984706776, 0.006966623768142388, -0.044004772510198534, -0.00213085624647788, -0.07678024353892597, 0.00444487395486004, 0.013037729308335994, 0.015317024072751331, -0.03550234349237265, -0.06605806769640861, 0.07639537183773903, -0.06882213672844438, 0.034136138278251946, -0.07159475763238253, 0.07502920702401025, -0.01767206106363574, -0.079921095231988, -0.06526623294444255, -0.06607073947944528, 0.007310504969618686, -0.056689462539339534, 0.07791615186115008, 0.0330757264363578, 0.06671297006859381, 0.039376863772176585, 0.06910322422782164, 0.04799803944276454, 0.05389557292358668, 0.062038185740025564, -0.013539374616129085, 0.01334328800280711, -0.062186964475370726, 0.06483625426737913, -0.023717463561695663, 0.02345451757502129, -0.05432142655285799, -0.01586793383242613, 0.00785765782903089, 0.04341328510485015, 0.033527843048037465, 0.0065562801631929984, -0.027431123420385436, -0.006998106644363497, -0.03557419811165107, 0.00985749462500883, -0.05639889962881607, -0.06732059646804638, 0.03633081603092843, 0.0041122141520634065, 0.042468977830747504, 0.0026120347601065047, 0.03721717814379498, -0.01590823826589105, -0.07039393562563104, -0.03259016819261309, -0.05127337722763767, -0.01174109138411869, 0.06088478146221099, -0.025396894091590176, -0.03847498527693884, 0.06553986770711112, 0.04523647485759491, 0.05560360039393114, 0.0473708654817179, -0.049718292190391984, -0.06898965086538578, 0.02429714198440311, -0.07636691665644602, 0.05312660830950766, -0.035181769584362296, 0.04211365578287535, 0.059282845580866605, -0.08043177095631787, -0.02289156602873521, -0.03490785788009975, 0.0603812547267131, -0.012753946278574665, 0.02642067074131836, 0.041375711060557874, 0.010696153481347476, -0.05165682238628076, -0.01315225376552287, -0.015954069967304335, -0.035947253113639374, -0.03213161373683898, 0.02171564766303001, 0.07317558411203229, -0.03868330749145449, 0.016981676104966786, -0.04931657603202729, -0.04617969167003486, 0.07575195808947488, 0.046228888133231255, 0.023875135093364586, -0.04173650445584794, 0.046957373117552936, 0.03192876300755408, 0.026358548210570265, 0.027593460178578777, -0.06756730266660357, -0.06506015876412743, -0.01854192963292947, -0.03896703507895842, 0.040826868904591085, -0.02020953138037103, 0.06226001887689969, -0.06395384836581205, -0.012292901549018048, -0.07075056636344068, -0.02388181139023359], [0.0004260288052497091, 0.009708412383207188, 0.004901765814425682, 0.06289628721887922, -0.04574842643757068, 0.046594181991624906, 0.07702287104590261, 0.008762671538413563, 0.06594671637959673, 0.03921607988966615, 0.020280905731088858, -0.004920329638715318, 0.05201441104675866, -0.01801814531965723, 0.02448533911325089, 0.005755187132422693, -0.025329452152090585, 0.06879660335490523, 0.03791115664382383, 0.05963451216463586, -0.06360986502180141, -0.020850847558506358, -0.0707720887125702, -0.07887961241036302, -0.06295571957042236, 0.005231731473196111, 0.01948975584310557, -0.023709745091916236, -0.020650990898014823, -0.0036184049289530035, 0.021464008613833574, -0.02228744413071465, 0.01812158098583061, 0.06893624087066227, -0.05324084071660632, -0.014541536504510538, -0.0031418215735020405, -0.0493694901352896, 0.04882489200849818, 0.03402382060188984, 0.05207095670451614, -0.03843511378989697, 0.05141335162616309, 0.005741800201085209, 0.05236292447114338, 0.021207355350746804, 0.006268705293910368, -0.07311977814129204, -0.005328143427431514, 0.07773421674286804, -0.0002522919402794671, 0.061433896291663764, -0.07411956484783529, 0.025634108114470255, -0.06906094816918706, 0.005880409307816817, 0.06696906720484933, -0.024441274474276506, -0.009703422746837317, -0.043124622933292486, 0.03215466445867206, -0.008756513065487762, -0.022540319936766758, -0.07465078774467143, 0.06159554895883429, -0.03898081305574056, 0.08110728586517257, 0.02640498066287819, -0.007469881251509949, 0.0716323589844784, -0.025852820816109755, 0.08044836199138, -0.0702792601193712, -0.08046879452249903, -0.05829993661030188, 0.0046568878889239745, -0.024682193596373643, 0.055626428012080925, 0.07425163806442975, -0.04226472125184929, 0.06525387249283124, 0.059582142388239084, 0.035143373863060115, -0.04162489879175545, -0.06773802543971413, -0.0003119472640211729, 0.003798263469857094, 0.07107979375521017, 0.022253599553041098, -0.054783051234151725, 0.029958979719716852, -0.035595778773789916, -0.0060965937814898424, 0.06948963973254946, 0.0639490512805985, -0.00973245351581184, -0.08061385121155115, 0.02474514048261857, 0.05655648567615462, 0.005423178970336812, -0.051991853089231835, 0.03890738814109043, 0.055835719874784945, 0.07612965273980637, -0.03364863593551793, -0.05483072523606883, -0.07569312160737943, -0.04930212756537689, 0.06430572539300841, 0.009508871580465109, -0.05772672214050291, 0.03366339731547478, 0.007116510703807782, 0.02559990041702616, 0.05099593652202383, -0.039144647447603216, -0.041073270457093525, -0.0750312224979786, 0.06847498747767491, 0.03115580857104068, 0.005834340365152915, -0.07000037380090052, -0.07206947392490762, -0.05959310140727235, -0.010944736947606684, -0.035995002924891634, 0.0639004362954031, 0.058968691149786506], [-0.07286805572495912, 0.03862299775919144, -0.016619260732549268, 0.050055416215300574, -0.001280436084484235, -0.03246478802311334, 0.019950424812739245, -0.05496201957709104, 0.0030991607931191295, 0.0073374960311048815, 0.05632653197789109, -0.052760585917129246, 0.06616143758228643, 0.04629235137812976, -0.03454351453662966, 0.07397848439141325, -0.06067114225657375, -0.04239953386100274, 0.02414674892319836, 0.06683329708050248, -0.07360669045918172, -0.03433396146101075, 0.0015845464157870082, -0.019793862357442224, -0.049868625085003906, -0.02613232354200204, -0.07588231029125687, 0.03448539463052418, -0.03444940062492364, -0.00717889661870795, 0.07954599222978542, 0.07460118977558541, 0.07331038469258, -0.059450946345865036, 0.04113990123461586, -0.06293102285471061, -0.05152758262009492, -0.06848280946191312, 0.07768273747746696, 0.04128275463857346, -0.02685573916233691, 0.07747787295662903, -0.04096677532987624, -0.039677606799638124, -0.05525809471527407, -0.04625677761240163, -0.038716698241120284, 0.05726760455615615, -0.0613381648574494, 0.07552994556085602, -0.021309340529791575, -0.050464058496646355, 0.032263361673253915, 0.0030864249260869475, -0.04733474820276251, 0.04785572180184189, -0.03693700644511118, 0.036633253780549796, 0.005520408533299506, -0.008691407950863109, -0.06186348905098153, -0.007325062376135505, -0.07670347454610794, -0.037447562160829534, -0.049622498861997384, 0.0514958515150207, -0.051884784423552696, -0.043532610269503516, -0.04327103394303796, 0.06801400267328181, -0.07510971093095647, -0.009012481353078888, 0.05707441042030123, -0.028293234918135304, 0.06987510760244292, 0.027532060797311977, -0.04238600677077336, -0.07491809520645967, -0.04716626397807846, 0.05314002191088674, -0.02978243803211647, -0.017268446840428067, -0.024595556568092418, -0.055626317205796666, 0.051060742529150605, 0.00326111731329215, -0.033764447430904995, 0.03924062541560423, -0.05231555774461551, 0.04045568709293178, -0.022495683953914984, -0.0409827092640974, -0.06309443398089543, -0.055803236477779336, -0.08089819478821879, 0.07429787633256002, 0.03872322244498608, -0.037187492376104414, 0.054982534639854835, 0.00044374004644173737, -0.046888456337113624, -0.027831801916366097, -0.035373039462154476, 0.057669001986867585, 0.07538959619195182, -0.06274017038692417, -0.006031849540172593, 0.049294644875043536, 0.052324198481234235, 0.06361068817352492, 0.019888551981936467, 0.07123833308709343, -0.04752978034258485, 0.004263389390562422, -0.06470547350179329, -0.07794977264344498, -0.021253769501633372, 0.007959632608107031, 0.049643992487388156, 0.0030485314395575225, 0.02314500348001737, -0.038588873416578025, -0.009154473375536265, -0.03489935941198505, -0.04165527192452108, 0.004423863335604239, 0.06810914889022515, -0.005062866752411674], [0.03408657128945171, 0.008686182478762669, 0.0780657787048539, 0.03476342164289628, -0.02835558146445262, -0.006009814670149091, -0.07333615885095918, -0.045143557629531844, 0.07598407683733732, 0.03212250190455865, 0.07289042421067735, -0.06820442787574775, -0.05338204341150288, 0.061806780271069145, 0.009730618842028485, 0.02713507834408571, 0.0007011153140147469, 0.046148083052091976, -0.028117441697570134, 0.013513833865478012, -0.029570289364455833, -0.06165587766816026, -0.05705211035085805, -0.012403333525710394, 0.06925982882754828, -0.03340923845962924, 0.06685818888058465, 0.05328211347874165, 0.057338656437210755, 0.06752260060326484, 0.052847373764989075, 0.06388219593791541, 0.0684109648159974, 0.0791481217432913, -0.0620184788378572, 0.04310744969364623, -0.018905945307093393, 0.053380040801162626, -0.012484788006275463, 0.062372735710324645, 0.028460481740673574, -0.07407622997252626, 0.008555035443501155, 0.0125436321420858, -0.028455832557671548, -0.03171287762384013, -0.010489120231234106, 0.02938618495346798, 0.04579547747096499, 0.05028758006737574, 0.06793227576510874, 0.006387121768038434, -0.05248756782063731, 0.06457493872750364, 0.035371148333831495, -0.013272282934298774, 0.05919144994882103, 0.051236529649662244, -0.022904590196075263, 0.021988402413289226, -0.06984352965054128, 0.05071768690818862, -0.06136528001177626, 0.06762168031713109, 0.00254210285743392, -0.03373832839617324, 0.01677710933491447, -0.06328740029815748, -0.02586318670761588, 0.03374329860466334, -0.021181195883765554, 0.056193205461080614, 0.01701450000867935, -0.038481216100597265, -0.02576213189240479, 0.01294410806948254, 0.06613569346145784, 0.04338652199677147, 0.04963908565332073, -0.021058134954081036, 0.0448915733342381, 0.05569885176394662, 0.05220722747135112, -0.04849773821897316, -0.04856506264744331, -0.04586005009740879, 0.027341908138078866, -0.07250716984979622, 0.07322714075982109, 0.05206215579065035, 0.044458523619808316, 0.03363424701960911, -0.049701168530099, -0.07848489294422847, -0.0005016080048211857, 0.05062258618461293, 0.05731520906774851, -0.0162222723768137, -0.025277932211371257, -0.04610278421334358, 0.006521286858831313, -0.04953415315467832, 0.02324391973428258, 0.07401048691292578, 0.008229259703560338, -0.03775860445794087, 0.005352297156736088, -0.0696995369496382, 0.06598760190040287, 0.04271902907993705, -0.011335772479275003, 0.05924739276875349, 0.03961967959485953, 0.026948516841051498, 0.068971787308405, -0.013582563693645328, 0.05978741984474881, -0.025335569470455253, -0.025549483309961728, -0.07269040131273308, -0.03270764049567102, 0.07561849374848839, 0.06286905684672908, -0.07919118405449058, 0.027177491740362256, 0.03008085603668291, 0.055371914489253105, -0.0703675592126635], [-0.06578131155176827, 0.05777634009653518, -0.04638436993717246, 0.02032732978209821, -0.06887628242221339, 0.024512445784053455, -0.0361332022749927, -0.024542830424635315, -0.043968570534785256, 0.016101144001165996, -0.01140461075461656, -0.02302006476776787, -0.04900200706489621, -0.026011353852695165, 0.04885181662924051, -0.018365995519406708, -0.043318995843909414, -0.024084358362350837, 0.04356167059232488, -0.026821213100943056, 0.0010210411233018274, -0.06381925268861272, 0.068787693192805, -0.045372703332906064, 0.021396098867744878, -0.030986195864120214, -0.0293363628039384, 0.0348683112946503, -0.07079960193532302, 0.007714863469769434, 0.051246203016406755, 0.07917839397792725, 0.03486658799299146, 0.051605539071679696, 0.0473400204538903, -0.055395622321228744, -0.04297212380369058, 0.05484040494448236, -0.0674555791213399, -0.06801194190554438, 0.005357576376407644, 0.04306350609881436, 0.01975743445198637, 0.03325807949986055, -0.06277877753148257, 0.05724032312475416, 0.003773352139577052, 0.060416922787888155, -0.004784884383142757, 0.07503593656702973, -0.06348676339525121, 0.025183959261813063, -0.07703277879092355, -0.05761738380551192, -0.04650417937351058, 0.0059476943089707135, -0.07015645343615864, -0.051789108150625485, -0.05175819614559368, 0.042984920863075315, -0.020573199753496155, 0.01848254998083554, 0.05282482021938406, 0.06511688346319541, -0.03813142674783628, 0.051320159282792405, 0.035555276154783766, 0.019789545521281565, 0.07793217126632707, -0.0433416572982042, 0.058601910427872606, -0.07975893536543013, -0.01168523822612319, -0.0133006060880375, -0.03216288467277513, -0.01956946816558302, 0.02685972416373178, 0.056943724426518155, 0.07078367607760042, -0.07350870534685328, -0.06546682269629217, -0.06693093022933655, 0.00392184502861552, -0.02356553453707795, -0.07955337372128721, 0.0066351572735803, -0.029392888766282238, 0.0024767173380469965, -0.08005628961995441, 0.07663260221304574, 0.012776116724921502, -0.0008275837080730375, -0.02197726037033918, 0.014837519289016207, 0.013162080616477487, -0.009628666826726417, 0.020903866364471307, -0.0795854464125901, 0.06865391558865463, -0.0766407859317672, -0.023245140250590636, 0.03576113806332351, -0.004941751367493016, -0.0093317844267716, 0.003475044660426946, -0.008262000837054126, 0.06324732269565742, -0.0264226192184324, -0.015524366366063497, 0.04186243862423272, -0.023388193686883794, -0.04842722369821691, 0.06774367981517826, -0.014459971947813052, -0.05022877369417074, -0.050759956886929844, 0.04795435739115278, 0.01885358092551627, -0.049479410885854704, -0.055193135035551844, 0.006290717897951881, -0.039596582274961434, -0.028112370801963597, -0.06655440833329164, 0.06281902187602767, -0.06792301741957907, -0.0303403229122643, 0.031131502219074722], [-0.014981788904028417, -0.03214293673793636, -0.06983408825119049, 0.014457362561222403, 0.03288250085278702, -0.044592328872238296, 0.05477020202590355, 0.04318994629924913, 0.07143969410778947, 0.07452548058253089, -0.061104918146728984, 0.06102870399873306, -0.017249543612898155, -0.022604542204018238, 0.07272068257196779, -0.04663563069247934, -0.038123994336190015, -0.03600319183765448, 0.01683701688375401, 0.06679521304564182, -0.03870932874482022, -0.04793110713088877, -0.07553835254179295, 0.04838978899988605, 0.06501068206819252, 0.012679378690301099, -0.051596948375608256, 0.04731662769522571, 0.008904919264349234, 0.002286157556352572, 0.025955551405272045, -0.032558452948977926, 0.0021757654130396265, -0.008695944994799448, -0.008360635987664317, 0.015941439174763927, 0.0011467450420196978, 0.0745074427103384, 0.0180636891773117, -0.07423308406587402, 0.07337745598464299, 0.032027905048068225, 0.013298656611976462, -0.0036425455973502496, -0.005215499960784395, -0.02931915141348663, -0.05674516650278627, -0.02785191855250476, 0.01244087480809146, 0.022583917599951583, -0.03557962258956664, -0.03985618854589616, -0.03630184846037462, -0.05903235179907079, 0.05810002858100069, 0.017780506991537548, -0.021130630939475314, -0.06363161243613488, -0.07842158402739163, -0.01373544785966306, -0.03202711286028739, -0.04842167621182673, 0.001077107064837407, 0.04001527185550066, -0.019625842491911856, -0.011710022015131188, 0.003553896354501873, -0.028152580521038938, -0.06107662070415195, -0.0703893891454038, -0.01336831440299037, -0.05566137641015341, 0.0803339059038817, 0.07272208627961638, -0.016205391079115575, -0.06722175869658915, -0.04269804081220888, 0.040773060450265394, 0.0696620241770293, -0.003950353615686172, 0.03768899761426085, 0.02256514243680388, 0.0754715654604182, 0.07664371175729473, 0.05631887852199491, 0.05961996260481309, -0.06233739850124498, 0.018617619616479203, -0.06208623300180341, 0.05857936446732154, -0.040741587612896576, -0.07478380106139755, -0.03017883600121299, -0.05145791732756595, -0.019965921778539217, 0.07417135012507836, -0.006392427484726654, -0.05799073401575752, -0.015566274059101062, 0.025757715550831478, -0.04435446483720956, 0.012943480235453123, 0.0648939099722474, 0.04271098700268525, 0.05025969790623297, 0.06787898657566871, 0.00639990947352978, 0.05110615012791783, 0.06456297388315249, 0.06541256018553945, 0.01635385944333201, -0.009420521934012022, -0.03148972817999163, -0.03131679575767975, 0.08031865669392849, 0.009799613659793815, 0.014349776509272189, 0.01220072844512031, 0.058990893936166855, 0.009733796369813114, -0.0495475108984717, 0.058895645170966265, 0.03399430765260482, 0.07096821388471602, 0.05416408880771445, -0.0767365099560476, -0.03649506865250067, -0.010117794614745865], [0.02693060544434281, -0.07864777114800998, -0.005827336544323866, -0.019081529441065823, 0.037328759704140096, -0.011804183903588256, -0.0060954664667131064, -0.002738519911421225, 0.06150185992968857, -0.058036723945051404, -0.04373221234837853, 0.061630474036237226, 0.021653946837616997, -0.029135042185790903, -0.05754565252424294, 0.0412538997347464, -0.060598435392531416, 0.02911881679673098, -0.051776211837313346, 0.03299450600813547, 0.06127445834440112, -0.07005343478011379, -0.027545453319900062, -0.03030409842683368, 0.011134617048509599, 0.02543309852759186, 0.014256317882497552, -0.013725560169875639, -0.031532168573145086, 0.04380658182536787, 0.05823537528598527, 0.03494114892605345, -0.039410223645783234, -0.060488475890129706, -0.053366918371017154, -0.052795334689241816, 0.0067317312533697465, -0.01238569823716365, 0.05605012686109351, -0.00905541298564573, 0.012618527118741382, -0.05424768951857005, -0.01786092452860004, -0.07761351811282331, 0.04359141652535002, 0.07424149011688227, 0.056793363599695085, -0.0563009234273768, 0.025422754968767072, -0.07820471168132065, 0.02696301662910966, 0.026362723349069875, 0.05234911548707244, 0.046189167841541034, 0.027242710797869482, -0.043867095832853406, 0.033459946593467946, 0.0007394701635021345, 0.019453441872365543, -0.05505436589976339, 0.0631823426763845, -0.07726296552012708, -0.014855684145184095, -0.024067871872009552, 0.0807061589632577, -0.05832402743173734, -0.016431085871089365, 0.011219274876454743, -0.07908129182931692, -0.011015953615260102, 0.0409217075287128, 0.026409748546119688, -0.02819300133173582, 0.027266687265882966, -0.026769254645129435, 0.05165015076908716, 0.004786110550828143, 0.05737988856033868, 0.00896272384522992, -0.06771208323600518, -0.010242182529502139, 0.04012919572701447, -0.047616795574057985, -0.0629764282621211, -0.07791443124271083, -0.07223303443745056, 0.05475861614262689, -6.601776294315465e-05, 0.0440449318657164, 0.052448125828047615, 0.051985858385588196, -0.015497393373137741, 0.001283869167847257, 0.07819065577283274, 0.06066475585062159, 0.04664550480087892, -0.004910682952562029, 0.048892306055874885, -0.06331821107440494, 0.03348890390747092, 0.03276367285573312, 0.056894877402452304, -0.05922244695768806, -0.0016236110043431201, 0.05083280421359998, 0.05141782722960708, -0.039380680152602175, 0.07279853754535387, -0.03047896417383853, -0.07577907827420184, -0.03776249185526533, -0.034701985914028545, 0.05577614991737612, -0.047932708427367826, -0.022914608553216212, 0.03219858914607797, -0.014914561129990511, 0.011981425734311033, -0.04372819094819654, 0.033621376606717476, -0.06925706348738003, -0.07764113744566756, -0.021217845500913546, 0.06619274340698672, -0.0332752759130598, -0.0697790679177653, 0.07415037807977756, 0.07997423732546657], [0.03523986816853834, -0.05643264047052779, 0.0804814829227305, -0.05434958541004548, -0.030675615323533585, -0.007484729248571518, -0.07343465493994257, -0.04912323706693661, 0.03908791622405823, -0.034254808917046055, -0.01617245574246232, -0.03750741634338815, -0.04409448833126728, 0.060802699346571676, 0.003430356497952966, -0.03214149389353722, 0.072895818275718, 0.0768700742126186, -0.006973379967593282, 0.03213820372579268, 0.0055478274316506085, -0.07536540819361141, -0.04682463238980252, 0.015852861850967574, -0.06060198729051071, 0.02895090632706211, 0.006737863261559475, -0.07176944676664351, -0.05431248237861221, -0.02063754401646543, 0.06172474771858267, -0.037049504061623835, -0.05237485887219351, -0.056436477456299185, 0.07918894911701074, 0.08066576444565414, 0.04502886200579569, -0.025667226927973574, 0.07937809223060294, 0.017232568401002957, -0.05109619298740335, 0.04107247082091983, -0.01885392332070124, 0.08096827167657637, -0.0015924387471957498, 0.04272413540512442, 0.07489147687829194, 0.020427508724213488, -0.04009794776836954, 0.04878165869004863, 0.03901507630192637, 0.025022670914831357, 0.00042575475755901284, 0.024130431352816378, -0.02057182999000221, -0.04283016151060894, 0.011519923872391367, 0.006634699370857235, 0.014348618970029177, -0.0510509612434955, -0.02054286107169178, -0.015957472350121182, -0.03214670225533354, -0.03351163552210725, 0.07618093007459543, 0.07844672397357902, -0.06940418816922339, 0.0794909152508551, -0.047074455988823684, -0.03707035093068722, 0.08107248241964467, -0.07976259132062963, 0.0281263824452303, -0.017547179981560995, 0.03782189250387272, -0.01003092316298047, -0.05320717501677172, 0.015584979024177407, -0.04180558321622153, -0.03396266208411572, 0.03659835248600488, -0.0038743690791953776, 0.02489665510815162, -0.02188752720676445, 0.05394825885609067, -0.040197581338687095, 0.07567755067812124, -0.047947151619535035, 0.07871168297752715, 0.013590678388199454, -0.041299199743105426, 0.04661403334228296, 0.04032239465136876, 0.009733901959925427, -0.008347035113746404, 0.024730352871364335, 0.0018257166735883932, 0.0702515083365584, -0.05531820518719633, -0.03478143337774469, 0.06568873970262133, 0.001846444511007381, 0.06243129846127192, 0.027391872958220383, 0.043993374863630086, 0.04543225931214793, -0.008268449670247396, -0.06327069915148949, -0.028938595155269656, -0.024849503376200434, 0.0351585008569411, 0.04537395705941274, -0.007182666716923049, -0.036106242136973464, 0.05347949004164064, 0.00919639656182121, -0.010851466191358003, 0.05360825566615711, 0.07912419676301768, -0.00334742617839943, 0.003659246377056745, 0.002487199200361199, 0.005781550253753236, 0.07070581891084385, -0.06709017968555861, 0.00881930014968658, 0.0659774711866871, -0.0202763365393952], [-0.024489288492958523, 0.06333913852182096, -0.010498131188122635, 0.053308223533282496, 0.04092254999952187, 0.04220525838069073, 0.053877036161503356, 0.009103646781938606, -0.04623333780573835, 0.07119974262019971, 0.0388542398744275, -0.023393063494490482, -0.001853096527269606, -0.02315527882273382, 0.018871807753779155, 0.06350580641367942, -0.021257454053763974, -0.01266674454174109, -0.0030298356420627674, 0.012806711063927903, -0.010251507070174566, -0.051451924877368695, -0.06233102755286662, -0.024169897899530463, 0.06895165643124583, -0.0461074732559258, -0.07917069819359308, -0.04085750641744146, 0.041941082799977616, 0.025172524052768402, -0.054302413592820925, 0.008356002401094962, 0.015908385349764763, 0.061872253829408023, 0.0020500375241446845, -0.06169490498929683, -0.01819356854463555, 0.0789558782600388, 0.017379356947491337, 0.05146907293047673, 0.012912517278423139, -0.029397814127380135, 0.03766417554555945, -0.007385168279002615, 0.0037983764191968816, 0.039491866607868166, 0.02942703095635748, 0.0543978342474429, 0.030718743167707944, -0.029366310950339737, -0.04823008020416643, -0.015357901467760707, 0.05822068407866451, 0.07075704381456335, 0.06178178410483004, 0.0687807512238053, 0.08078815457574118, 0.06995934761936369, 0.0008638854512480213, -0.033107114070047454, 0.03495206275603778, 0.033605922350485706, 0.018019458505301126, 0.0720240420921807, 0.04431370052733253, -0.07169731898857933, -0.053203296631314075, 0.046733069702675246, -0.012459010320972077, -0.04222779080462204, 0.03466357132142672, -0.06770651298456593, -0.06562286675806885, -0.017481629113688585, -0.07713864826472513, 0.05014758828760947, 0.045274343526720974, 0.032645801450035365, 0.023931896753356455, 0.05585874444627534, -0.05547084313713181, -0.07082332558350163, 0.06114323639613939, 0.0013352419880778704, -0.07874379824664735, -0.06766997515972442, -0.02036558716253622, 0.02715696158354908, -0.06471493187403701, 0.051185583202415036, 0.06705015969545959, 0.07516756954697318, 0.0562319376763688, -0.030054200075425128, -0.08045921600878392, -0.03325998575314107, -0.030444924416874148, -0.0351561446977259, 0.0335786511269289, -0.05184028135371565, -0.043666724587319836, -0.07218561037879546, 0.052551222062964524, -0.023684169134836716, -0.021831889942889898, 0.0009503510284978227, 0.04871931338920871, 0.03115838798212997, -0.023570794468493524, 0.05400932687576945, -0.049516574193659166, -0.04266885998465451, -0.044607597608150196, -0.06523992121487787, 0.0661816660134819, -0.04614106199955257, 0.057716513492877514, 0.06345655944542893, 0.008889784204805478, 0.028919921179966987, 0.03078897381081443, -0.07988227932699955, 0.030289841060725235, 0.014634971539336641, -0.06341721632139756, -0.05786549397500332, 0.007068629707935261, 0.053711804981457244], [-0.040921482641660886, -0.06258613135741956, -0.010547201538893925, 0.0163956830462603, -0.033296627004687614, -0.08039112861146717, -0.07195967418920882, 0.07487527240366712, 0.05947233214168557, -0.07036139402812297, 0.027689452995999075, 0.072294282530212, -0.03833732278128674, 0.006485761932642103, -0.0587699725016225, 0.0009075427238025547, 0.03086374792641846, -0.04576632202352495, 0.05258310847200625, -0.03169922359017115, 0.027790813792671426, -0.04373461047284784, -0.040755327190408495, 0.05117385633067576, 0.031612886675287014, 0.032922047633826286, -0.031150401895979993, 0.009159628790243884, 0.0665844190083959, -0.07428909610811715, 0.006378255402765027, -0.030615676152465056, -0.008240864714151858, -0.06292417501339899, -0.07583624830180688, 0.016525182294592995, -0.004584336469030806, -0.057335127867360294, -0.031095071726888635, -0.0577807575682499, 0.010666984811773488, 0.05495182783330388, -0.07596604530764646, 0.04956905655559017, -0.05112357176755986, 0.011071067076450343, -0.03235299567734846, 0.07701033188950317, -0.0159874311170764, 0.056885544523177366, 0.02987348186086425, 0.06378237725704838, 0.027688123865866, -0.06260236679823653, 0.0419355359327053, 0.06482271573180506, 0.07032602962242082, -0.07015955532060106, -0.07179449239178862, 0.05305454252401434, -0.03556879166510122, 0.019104585556683276, -0.06506104685656092, -0.019609764982249065, 0.05708478966281952, -0.05439192900511321, -0.030827269759334898, -0.05987163721842118, -0.012994535275269574, -0.07171182285932115, 0.028318484667713764, -0.03871681291236077, -0.010992641222086453, 0.03148569611530069, 0.0354063862153491, 0.005820991216479498, -0.05382088624360452, -0.07506654374053061, 0.010177907055003169, -0.014976420960695163, -0.0458650736480584, -0.05451965783660965, 0.003221093356190643, -0.021869410109020437, 0.059180955324808, 0.003079571252372737, 0.06660365920311817, 0.026722956854526053, -0.0761162878834493, 0.01400452924353722, 0.03841157579979136, -0.0549413083113408, 0.05124513444970111, -0.019917029913098475, -0.051715680990715024, 0.0010017823545022443, -0.02216219701555021, -0.037915324917949085, 0.06550337123258212, 0.06513267064606346, 0.03173573764902754, -0.04441823165516008, 0.019408220791622778, 0.05276132402954677, 0.020700517173176253, 0.023380298664111274, -0.06052347130087274, -0.07924651687552411, 0.0680607122471894, 0.039626354919741216, -0.014641535163735543, 0.010992377491738866, -0.00524432544340489, -0.005486417822745642, 0.07914510045883899, -0.0633268107348127, -0.018117399702205092, -0.011830884210028087, 0.006042821097254252, -0.0014311598729707044, 0.05720186036099058, -0.043429512101759445, 0.019011330830744327, -0.0674660614451346, 0.053071490783014916, -0.025932948546709016, 0.00747807276045199, 0.03366659398264204], [-0.02177203815346636, 0.0807259413661657, -0.03642026867080646, -0.0422788244834716, -0.038375680910588655, -0.05164342360401304, -0.03286531959313733, 0.07655470589831129, -0.019708727509839506, -0.04236708007308122, -0.08024050553817508, 0.036730992038344956, -0.07993679217634038, -0.030970613223098017, 0.016606091486173216, 0.015325237553301698, -0.0646289202022093, 0.07392563473490926, -0.01956357974768984, -0.06641347800897085, -0.04558011263168279, -0.042385249918420784, 0.047108833870534245, 0.08077465865616605, -0.0649622879743354, -0.06227768701864685, 0.05425227452276091, -0.0723464423902979, -0.07862211946402978, -0.021420630177955216, 0.040255901987882675, -0.009239904791065472, -0.07836259708596852, 0.04239753229504844, -0.025404371905604524, 0.026334425545272114, 0.06870465986171397, -0.04882707043634112, -0.04065381197284113, 0.028637714014174823, -0.039858781444887394, -0.002676591496874131, 0.023175140682643057, 0.0009948230251912442, -0.027342851921734617, -0.05061876173343445, 0.013430463100174733, 0.07930036120117646, -0.02702759138528122, 0.05228694958931102, 0.038032102747215316, -0.06611476141363029, 0.015961956280970576, -0.049636556295842495, 0.01317039266272968, 0.03707493305844854, 0.022435720676639372, -0.04358167812264522, -0.07550898340272247, 0.06638899397137718, -0.07085669257774854, 0.02407492686598811, -0.07569976677937108, -0.06748178032398096, -0.0010770059087335249, 0.07475121246232519, -0.043427467467800226, 0.04071253924453751, -0.05163554636457362, 0.031582193192366576, 0.054506876153979346, -0.008327459999773268, 0.07197915257158871, -0.08105221226164833, 0.06064047879131181, -0.0542261325653077, 0.030094964254995887, -0.05442222837135424, -0.027425128493239248, 0.00115773867299057, -0.06668862409537231, 0.005497421559690037, -0.016553326937715652, -0.04458867976042576, 0.035159311413191084, -0.05592220507022798, 0.03674826586511132, 0.015596587237891452, -0.06868761433502352, -0.026806531523679643, 0.03653441372636618, -0.03661356240476219, 0.06678041338349129, 0.02088500474959668, 0.0324212772807729, 0.033430885563655165, 0.023178167683278225, 0.011120387404794613, -0.0024907530788062515, 0.008021749166492181, 0.03185030480553563, -0.06658492440946187, -0.06985140726991745, -0.04502014981913182, -0.042194780107900336, -0.04637414125447659, 0.05697737887688653, 0.07727155966656023, 0.00275368138088732, 0.06853350106575984, 0.0010407824151366996, -0.029197646186535354, -0.027721190464085145, -0.042588036671832155, -0.004001029378027215, -0.07243936767339026, 0.07929691347963944, 0.02088112789337549, -0.07710027872067084, -0.05579426975734927, -0.04753630293905821, -0.06961893426018957, -0.048477304186002934, 0.02937151793459325, -0.08017551474946714, 0.01328535881565725, 0.07107569989880093, -0.0030806441037475422], [0.03866127252840139, 0.07900372900802546, 0.04973777975686555, 0.00936596622193235, 0.031871668717496915, 0.05265093747325528, -0.07433515252022159, 0.044066419738196, -0.060294835693399204, -0.02724281965939998, -0.016314836255144433, -0.03445140132949561, 0.022798450541347298, 0.0387116166244406, 0.08093528473359432, -0.004385517955737966, 0.02036281685727781, -0.03232202672128905, 0.052761537719037466, -0.017012702374240407, 0.07837517441732633, 0.05996330498718136, -0.004653939561856751, -0.06848171210584605, -0.02485236338372602, -0.0006120515440941193, 0.07189024341610464, 0.026662589744534143, -0.06971600684483115, -0.022902995045425353, 0.055609415915170046, -0.012205899500663309, -0.0015463357890031365, 0.027678367292361145, 0.019481204870332627, -0.07479836898962758, 0.04571569511760229, 0.04043425631145918, -0.03779444649604506, 0.05525583689961744, -0.07186253284459108, 0.06081119501187757, -0.004641994112012077, 0.07009306181903752, -0.04720808360832582, 0.0011215771319879608, -0.019320694346471982, -0.003739566232790495, 0.01763362097128858, -0.0528247248044002, 0.05464895071367426, -0.05168632781380169, -0.022403004479625503, -0.033974989750018544, -0.006026157200030885, 0.005319454507740573, -0.04646019403193198, -0.053415875847407104, 0.05658323675002999, -0.036399771179777066, -0.009204647949926315, -0.00591441844754359, -0.08065732716655684, 0.013971868966714443, 0.05049481849308249, 0.03146788958290918, -0.062082124703497624, -0.08110737634235902, -0.0700044855763123, -0.06216598350437003, -0.059340172385091344, -0.007144175740308983, 0.0030092194770886815, -0.005503034863449274, -0.005663232253601172, 0.061660115719690434, 0.05209271686800035, 0.015216220075677953, -0.0007829258833047525, 0.07008098921292841, -0.040487277228946336, -0.011138842729061335, -0.02920910788617055, -0.05563335782958405, 0.05249249528143468, -0.0008298887611812439, 0.012565840206890833, 0.030691270857521782, 0.028192241544352584, -0.058155782657136994, 0.046671223085166025, -0.020211715963823297, 0.006185593986003643, 0.06420560140803558, -0.06377688273412738, -0.03432305132585856, -0.025437734409021993, 0.07813665348272544, 0.03004056831688591, 0.03328279947708393, 0.04084999247420763, 0.03615450880887704, -0.07202979058100956, 0.07261845032593081, -0.051862061772580126, -0.03227989512771713, 0.06605824267479005, 0.012765096299709178, -0.012332818176020166, -0.07769996567341246, 0.030210670706294934, 0.028330084650664042, -0.03144778135217412, -0.020237478313385286, -0.004284073920701001, 0.0793098378177979, 0.0565893902228235, 0.0014485673172378588, -0.024494770844421344, -0.05777228548978894, 0.03280968384880992, 0.07555000370254636, 0.032484287431217854, -0.025987187038518884, 0.036973485931968766, -0.06601816042565573, -0.03169164547375732, -0.01948699934570442], [0.05847178953971552, -0.024637995114588626, 0.026633191154582375, -0.03916163966283963, -0.02827337413200133, 0.0028212274784439884, -0.020560679270327904, 0.04947104987116921, -0.07574332513879499, -0.036513220631375, 0.0022193826742219064, -0.007423726704922667, 0.006364066043000147, -0.03353921388012287, -0.022481287872995727, 0.06139594424575662, 0.007410036754784632, 0.014764578978428325, 0.043727872726372824, -0.06980528128033156, -0.06226102100656973, 0.04365959626465754, -0.07528513861889582, 0.06828095520911656, 0.0789536675297915, 0.02090550720260087, 0.0580490677339732, 0.009538361224987885, -0.07618484921176048, 0.07474237602374992, -0.02122822641002023, -0.07626483380035093, -0.053281919668025375, -0.066048059500457, 0.006343386274447763, -0.04874245139666989, 0.0071051897152684396, -0.007973555861247594, 0.052238500608108335, 0.04101179840483915, 0.07678700360871554, -0.02434502825856357, -0.056238071045734, -0.0417219728494025, -0.04869477850902945, -0.0721797761295392, -0.051721945838269195, 0.06459895179101885, -0.04565821240086987, 0.06830771020487372, 0.0710577315348058, -0.0002849552020289664, 0.07207933447917603, -0.0708379475978638, -0.02151723167247728, -0.018835804819262114, 0.030608422228849602, 0.04150050307579893, -0.061669340690743084, -0.01645547398051711, 0.06120714355161733, 0.03658291674320202, 0.029407083639430454, -0.0024623801597262324, 0.08061352495416008, -0.02615052473600401, 0.04005731217744775, -0.01925333077297653, 0.04415912584677359, 0.050546561576280596, 0.009021437782332345, -0.0722296354080624, 0.07224873733313808, 0.07726342734504063, 0.07855697929803443, -0.022261179927206103, -0.026467316783905376, 0.0723301210163281, -0.019414189641394443, -0.033800996732878945, 0.00025015571286507443, -0.042743820324683955, -0.006625396810275394, -0.035060819505227256, -0.031739179307133485, 0.022657899696140987, 0.027053658969710126, 0.028358270945837608, 0.07034052971638019, -0.029759252287023905, 0.02375459656208531, 0.059035966597484335, -0.00822139893006578, 0.026673933571917052, -0.05835083903765657, -0.06259464116075952, 0.05600895536733522, 0.035035414101442466, 0.0034610435626166447, -0.013808128091808619, 0.01790536509141802, 0.07189793075115433, -0.058979213963441884, 0.05869288198972733, -0.03484371805215594, 0.0790472276006498, 0.002827627091817997, -0.004878151935645225, 0.07798818594974688, 0.044421600686645274, 0.029910192045264447, -0.06571360440888156, -0.05023042426633554, 0.07271112638131991, 0.0001830898126862074, 0.029133649720119573, 0.03680340791325945, 0.02714377596222234, -0.06652284593657504, -0.0801480884919296, -0.00494146517398085, -0.050774025358470684, -0.00026891157894187723, 0.05307261031625038, -0.07244360563277814, -0.05314741378718496, 0.06182831597421326, -0.01935717628319486], [0.0649189815151116, -0.026792564655647506, 0.032750036588901035, -0.034568780487815816, 0.0011427116578922453, 0.01955482045267974, -0.03345871843440738, -0.042650789607765964, -0.019843086450608692, 0.008871724146946577, 0.05715230305331642, -0.06676046660586496, 0.0635744762790417, -0.06659281649978958, -0.056999806628905886, -0.06102896239961353, -0.07986852418115652, -0.056870941943036685, 0.01968820829218121, 0.06249089918112263, 0.06339805500998891, -0.03286763049859891, 0.014320887318256523, 0.07652789735333496, -0.05809081477982252, -0.07096805447905467, 0.06252920877094423, -0.014455292532202277, 0.018485291326345812, 0.0289067885963733, -0.0324762592211458, 0.04087285905234685, 0.06233803679857028, -0.027625911295135135, -0.03654144540440582, 0.0411676390718078, -0.048578852952447266, -0.06324622001449853, 0.024871815694955363, 0.07836885444689926, -0.07681714277354712, 0.07044423853732737, 0.0249952089022525, -0.06165313813923187, -0.045833819467775934, 0.026789691242228242, -0.07953046298239129, -0.011307602794955199, 0.05264119809833254, 0.045399109696504486, 0.0012814690394515882, -0.04978741033513386, 0.06745701350176977, 0.040091304408837486, -0.04632200770014491, -0.029327860865143253, 0.06740803660443664, -0.020822082795615468, 0.04657095119605817, 0.03766535412294683, -0.01022029847324897, -0.03256885366761267, -0.029626660634822048, 0.0625985451945836, 0.01336578009551058, -0.03151455203082896, 0.05523489091615069, 0.05478037473562569, 0.07740873491356312, -0.06710651362250983, -0.0355785279078424, -0.021986129992397165, 0.020139543645038754, -0.03955012288920876, -0.03838251092038913, 0.01065502714198413, -0.053747178337567675, 0.023872331580460968, -0.03753728563357044, 0.07637267492335684, -0.009308984900710554, 0.05247381418933553, -0.002450070898598042, -0.04321382684679531, -0.015787013424431798, 0.038539824302262216, 0.043558845187772435, 0.07804286442116212, -0.053347137520783086, 0.058655147646974076, -0.07088561967171703, -0.07040646395592562, -0.05696462252596535, 0.028218343296398926, -0.05476679492216213, 0.07739461219129379, 0.03491828639373963, 0.04793144519168893, -0.06553871202912331, -0.06764989808329222, 0.06837148637112644, -0.02717980878520082, 0.0591623708338431, -0.0661641129319034, -0.039214755994721934, 0.037936802485739454, 0.00782907032378187, 0.008040537516465066, -0.03547493722140149, -0.018428157946190432, 0.007746160858565651, 0.0434876872145155, -0.008869436442850612, -0.04122324123946096, 0.008759830508263927, -0.07980884289399431, -0.057416087978486505, 0.07886567622941418, 0.06203918841179293, -0.06416399924591253, -0.04734381851813231, -0.019018636905469774, 0.017320206094998472, -0.011673916542226964, -0.05105281956015101, 0.059102247140647546, 0.0671834630478616, 0.0470556570396371], [-0.06196264078140812, -0.05630384148728242, -0.03014146385885958, 0.07319624370423303, 0.07516194783182631, 0.05978658186493585, 0.05792130440710272, 0.04092162039988051, 0.04110837001753502, -0.028111747857292937, 0.058490164509994585, 0.04360119143090739, 0.05068808803584296, -0.00934429828129868, -0.05602473407500717, 0.00030291640058791036, 0.030979119232613248, 0.03684205441729124, 0.044398073978066666, -0.03854868377916343, 0.0149029775029913, 0.026758646729379, 0.04350980277957535, -0.062386228712185535, -0.055038738172912896, -0.07244787152752852, -0.037511361461785984, -0.06564743078243375, -0.04466166883809014, 0.030782972195257413, -0.04967806553597147, -0.05003074619768036, -0.0015983974499163833, 0.07337566907929605, -0.0741890418429132, 0.03420353367792851, -0.03844330251096176, -0.059879253476283666, 0.05741645720868627, 0.07915104753563193, -0.02423732278305537, 0.06227427409489775, 0.0037991435224103837, 0.02189884642788019, 0.010529246970510067, -0.06667311059312055, -0.019010971396217338, 0.07837150200129789, -0.07789790738981915, 0.031357737630725704, 0.05914023156100401, 0.05690662492777876, -0.03316118898853761, 0.03747056211405454, 0.042832684429148934, 0.04554713343723901, -0.02736313244464706, 0.041961671431203426, 0.047383336851140156, 0.07164271333355698, -0.05236194755606362, 0.05665187075261849, -0.018186633152395562, 0.013748414428759043, 0.07052751314830843, 0.051426301268234054, -0.05986047437885412, 0.02319344526976122, 0.006941235978725632, 0.04436392820550747, -0.0032208681581928217, -0.013686519212205872, 0.04001491142665986, 0.07284802138358296, -0.034740147381856386, -0.04040521763976839, 0.05438430658062965, 0.06003062323441974, 0.003367200730132802, 0.06289565437550834, 0.05471999992912083, 0.00014742321745477016, -0.08020878775581405, -0.025051510310670135, -0.007735133905503538, -0.019924813274378457, -0.04799049149004368, 0.08106325328532371, -0.04985188224353678, -0.039552155664721686, 0.042861252171494835, -0.046433115164173325, 0.009528744177073556, -0.06756614152852586, -0.07648692969446712, -0.07337738349974617, 0.04190951100875627, -0.027548846854713767, 0.05172154666507034, -0.029040993596510176, 0.06819239021354437, 0.07113672832207418, -0.03072295921114493, -0.045167604241449735, -0.03956145350374195, 0.036887239217855944, -0.07455393453110565, -0.016842701414581968, -0.049840244129148975, -0.07831313854628351, 0.03166382661874691, -0.028312317271689764, 0.0033027508025919444, 0.06770520779995332, 0.04644289836957477, -0.01384530993676189, 0.05008404542547654, -0.0600809248184671, 0.07817445373835169, -0.05211774273890821, 0.08061117629717837, 0.010449741809816337, -0.06051225589743239, -0.07372800284487367, 0.035701801020399576, -0.04007640930383454, -0.03503862143098974, -0.04748290118158689], [-0.043792117460562933, -0.06175200767094617, -0.024646387076493352, 0.0166646381597626, -0.0656627186083441, -0.06067726137045128, 0.025053934737120975, 0.00998573618884055, 0.018507634989676933, -0.0475259044429859, 0.04448298895690647, 0.020108961341665718, -0.015527110076478973, 0.06598054238505302, -0.03387142990625795, 0.07446634534400431, 0.038676014517921076, -0.02591555885010973, -0.06882014946228211, -0.002144559813716626, -0.053137957228115464, -0.045127048989393834, 0.05687934186170218, -0.03226737989465658, -0.023719916344516284, -0.06037052691504748, -0.07939703372262596, -0.001008324181875242, -0.06575341435372745, 0.0567923854396693, -0.013201529983671523, 0.0028674710920697927, 0.06527267235892273, -0.014038960751947313, 0.03503010685306551, 0.02598638158677051, -0.006390171132418951, 0.027863531668181674, 0.03155710533379974, 0.06755477830373294, -0.009249347102771519, -0.0598893111750525, 0.06331776685032214, -0.03026011085971065, -0.02132708173369869, -0.02108051376669956, -0.03437596070607345, -0.07130380466382363, -0.06175635529070449, -0.052397334431077656, 0.04495702146756406, -0.02492582945812421, 0.0276770855102198, -0.05266024389615076, 0.05946493883200857, -0.028637863192013523, 0.014371657665996629, -0.02727478485895264, -0.008693942903485241, -0.029709120284010994, -0.06609310428283927, 0.021977408778629692, 0.018338172513896356, -0.06910460813259009, -0.06918183342838727, 0.052509494312295624, -0.0592998305406008, 0.006393073024625481, 0.0023995287543155525, -0.01774955963266779, 0.026317512523990408, 0.0364718669306804, 0.026801906189146768, -0.06589873044163097, -0.08032343979402824, -0.06340201697747426, 0.04881209786590976, 0.019883248614947016, 0.044115506797143766, 0.032242719893239805, -0.04113833025787561, -0.0009209876921484061, 0.026740126994805172, 0.025936047027634662, -0.018899688712365775, 0.06567967806778766, 0.03739638851894932, 0.060978443690724665, 0.002453118549040109, 0.026276205788843154, 0.040405293059619776, -0.06426580378735594, 0.038490944640420535, -0.07346274783075196, 0.04655730630867397, 0.05594635751212371, -0.04637769005848033, -0.0722674813622585, -0.04529704435446519, 0.06726770772235693, 0.016971964181955276, 0.012604575360360942, 0.03333330777310775, 0.016695796011836322, -0.05984462096637354, -0.07217635643679968, 0.06613513239114915, -0.004179644636904803, -0.0793677526859886, 0.016551639147885752, -0.020402293223391814, 0.005395860796812937, -0.043297912191250815, 0.0707480981305022, -0.0486677157984889, -0.07556082210210018, -0.048174058297204565, 0.03559970367590268, -0.07288965551737539, -0.07135862504214416, 0.08044016433682225, 0.07826759511423331, 0.07827429787797907, 0.0610141888853106, -0.058218131982078716, -0.02373961584102531, 0.03798394566120075, 0.019640237899288066], [0.019105687192509532, -0.07731471329830855, 0.0083391082658483, 0.029314511966558474, -0.008229545289935303, -0.03526769630037878, -0.007923840937154952, 0.04465906673634826, 0.06192741618369632, 0.0742076798897082, -0.024979065615694504, -0.03992893482028605, 0.03288366829162177, -0.07238944161282777, -0.02309478368621143, 0.02369649819130973, -0.06963183582697455, -0.03580403164121785, 0.012260563446938433, -0.029025975075883302, -0.06251294887576335, 0.049502633235595395, -0.06742967695743203, 0.05659110995793604, 0.06105110796961785, -0.07272930813525134, 0.02392077262382429, 0.007675171347019866, -0.02727407760961688, -0.020290139889949883, -0.04308886984940872, -0.02249589507617923, -0.03791943826119533, 0.058037221790518345, 0.06945942378717376, -0.06855397696245422, -0.029830069095280347, 0.035508966907020295, -0.01675192078592562, -0.032763634516179085, 0.02429671294137732, 0.008574385351572067, 0.06177390433481894, -0.008946921121006021, 0.04072892470118249, -0.036312436038337094, 0.06078759630267386, -0.07468076886537388, 0.05720100785725685, 0.07278647747213735, 0.07147586249146928, -0.023103399542798615, 0.008561135547273696, 0.03157714970934482, -0.07653435044340608, 0.0728197199081726, -0.02607814907502136, -0.04154603842474009, -0.07369245731164459, -0.07916528274879495, -0.011684476439974709, 0.026468994846739882, -0.07320403323923369, -0.0010994871309883275, 0.07897091632049472, -0.021156823997773896, 0.03789732729865537, -0.06763844429464323, 0.06350763979627372, 0.047220112583388374, -0.020510668929106184, -0.06326898885189312, -0.059493103775615466, -0.01407203164795226, -0.05006158275049824, -0.002136983283726482, 0.03334121091582576, -0.017390825393894097, 0.05796577525210031, -0.022066264083705683, 0.052093854116081556, 0.03666169297692805, -0.031689621087035234, -0.0024958380981675438, -0.0687881774679315, -0.02647128137202473, -0.0309901337784957, -0.055547730359896616, 0.03587637524732887, -0.052668726024106785, 0.045967457205274675, 0.07644235895117865, -0.0320692583908766, -0.024757035936937746, 0.0005048066704314569, 0.07382520825827063, 0.0068494662126395295, 0.06965141071389763, -0.025498038507340184, 0.01752751833675445, -0.030786682002348208, -0.03376227605625174, 0.05036496798638873, 0.0006382650730041572, -0.028106787176926072, 0.06982175525286904, 0.0504701579853542, 0.02878854719711582, -0.03834373880815912, 0.008004709029039742, 0.050815741570378714, -0.028685286079442256, -0.02692514177240387, -0.00485525043486458, -0.05133453786084398, -0.025688035898156852, 0.01817130087548613, -0.06667624426057436, 0.06361059226551435, -0.0396880143352488, 0.07586568461591536, 0.0305688429497257, -0.04331554273801658, -0.03576598267425769, 0.07577367271613367, -0.0344328374011083, 0.0744029149353091, -0.05613119237619628], [-0.0026452116502734963, 0.05006421907951053, -0.05247306879147698, 0.008227927883084143, -0.054577012406678636, -0.017722585110955508, -0.07794151130360107, 0.0502211672170845, -0.0016341413276725891, 0.06433522434650579, 0.02840378276011815, -0.055984269889881214, 0.029202341645584953, 0.04318327636234191, 0.061625047115304005, 0.0037761340045109892, 0.00655349610503328, 0.06836816665231019, 0.01902842545344402, 0.03749617091842987, -0.0736839430183275, -0.04792767112090647, 0.020587313823053663, 0.04185265915545394, -0.04156625141894222, -0.06662672986233206, -0.07142923415695884, 0.029630363875777943, -0.012192180036556727, 0.01587266809701751, 0.023605609104574224, -0.03695835294867572, -0.05784729553988062, -0.012182377334090513, -0.02314783111911122, -0.05818335163066059, -0.0014073346416556137, 0.07974026930834302, 0.06741571593524248, -0.021584757244136478, 0.07811339078906956, 0.03748417837453616, -0.009423008472585884, 0.04965310396161218, -0.02474667636433589, 0.055244785867135576, 0.0058974529770506184, -0.04662399568101364, -0.0212093471903661, -0.04436646838317933, -0.011326246406596255, -0.0001667950600445084, -0.06782593235639442, 0.06552655288226755, 0.0005173801905987291, -0.06412691602987261, -0.04163334849394724, -0.05994836288184441, -0.019503055633911297, -0.040496256278311084, -0.01440359392045179, -0.01410142943110368, -0.05191264456259822, -0.013963145812323469, -0.0017109859367857444, 0.07142907037166374, -0.026621051334848954, 0.0802963800608249, -0.03291175758432585, -0.06794298169473253, -0.01724201373584662, -0.009943140720131388, -0.022183312742141893, -0.06188990311331518, 0.016202462989717503, 0.05200868388818239, 0.005157539841501774, -0.005806806548031673, 0.05696792710807255, 0.01946829189161224, 0.034520138335680614, -0.053856654769324726, -0.07179828927375441, -0.017623764747736567, -0.05152413248945155, -0.03416706197278525, -0.07796933287532849, 0.047549847894645, -0.07366733665279056, 0.049309904258363596, -0.046888200341419065, -0.07051700095445891, -0.03827374920841711, -0.07744546065097734, 0.015750262667327874, -0.07678393993983423, 0.08054054632158444, -0.03241737468820665, -0.07548143657160872, -0.013329135937920913, 0.04973701278919049, 0.07507384076536436, 0.03049448665759749, 0.0737245055977884, 0.06615668634437058, -0.06818511364933462, -0.049589467319039134, -0.05422103839463022, -0.07896800190783639, -0.05423231522799014, 0.002620155620892989, -0.05090303908575129, 0.030465295002302592, -0.05451785195652428, 0.011343347522808786, -0.05041478080913416, -0.0645273663260507, 0.03789340360920472, -0.07240010984308462, -0.04032480540119825, 0.0791777980918941, 0.06454269452488925, 0.0015633902590344723, -0.04174408559587686, 0.0040556522330663786, -0.014755785821285394, -0.02250380227947519, 0.07215210855235418], [-0.06624940945421515, -0.05346393166867949, 0.08048207081303704, 0.059883321316107935, 0.027136432750161463, -0.0011964123294802148, -0.025298925431901764, 0.07845145484858043, 0.06159165531996888, -0.0719543908598611, 0.004515560245186762, -0.0009301839128526557, -0.007105185098372754, 0.05579812816531243, 0.022431530388354562, 0.038121741771111606, -0.0008482445236619313, 0.0018945173213288091, 0.01098815294738742, 0.04310446496607705, 0.004809040556560687, -0.030537559098435522, -0.07108653600380797, -0.015290343548453045, 0.06928766909763057, -0.0219438177858588, -0.003587858972186969, -0.025282689465503397, 0.05945807327046865, 0.03121139004990235, 0.07073286910339946, -0.035583231473634534, -0.03411731438549675, -0.007963451012211922, -0.07422439497767667, -0.07119853588733198, -0.0030527069703824156, -0.023133306271724066, -0.07431469658886254, 0.05828417365186056, 0.07270172200836436, -0.049142515405171956, -0.07996968849412354, 0.0743350567499815, -0.08081607519341803, 0.0797238406190186, 0.05034712179419326, 0.01129334152181187, 0.0722676310857003, 0.016626559369434427, -0.07507148171709004, 0.013252605576937984, -0.0736861540938991, 0.015070815276658045, 0.027281460463068175, 0.008005233834881664, 0.02216979484205739, 0.02009165981489143, -0.05285505419322803, 0.039942143698467616, -0.007107544220146644, -0.06701667919880745, -0.022345039001168118, 0.03090575588715766, 0.00392446763114028, 0.04033863409985948, 0.03144102783356664, -0.03472998269741563, 0.03831678639104394, 0.0608055520020937, 0.02511387313029219, 0.052702347675880834, 0.00973199681619398, 0.01755575237468633, 0.05244796567406668, -0.026403724471124775, -0.058101517188313634, -0.00963716479452556, -0.0016094010993590036, 0.008222212641375903, -0.030801378611530345, 0.06515119140795361, -0.057288463589673835, -0.06296382614663214, 0.05247168344048278, -0.012378745389282172, -0.0073819664837585786, 0.018463251984135065, 0.022310616129826724, -0.06816647434841551, -0.0037148308505968036, 0.0506448925936277, -0.06536236994569553, 0.02343262884462914, 0.030812656970982635, 0.053404253700725934, 0.06116545667213713, -0.03760231192741624, -0.06769977517832738, -0.03125303307924444, -0.024807480978047462, -0.05997320406917961, -0.025498866260465936, -0.07418451655171349, 0.02609020992062984, -0.07017897234437742, 0.07784355811990626, 0.07863908211878654, 0.006881316618296579, 0.009540774916896644, -0.07096067626800774, 0.044868681046707215, 0.04571414162760104, -0.02272883181770774, 0.07353380433985904, 0.02295629913992371, 0.033332978695604004, 0.036389994379330534, -0.07083297279877619, -0.024481716769870814, -0.06955296573358828, 0.014067041934334376, 0.07673137105403988, -0.011935464298023252, 0.04366221529295283, 0.041825168203878715, -0.0810516477870732, 0.0690517970208663], [0.07041573832512166, -0.03846619579297574, -0.056546959870789684, -0.04581508383660587, 0.0006622789414781061, 0.0384102607332415, -0.05126892051241873, -0.03996780574134897, -0.02645142209366972, 0.028538221407221495, -0.08104152198094093, -0.08100366177792968, -0.0739893799884731, 0.024131694962153075, -0.03143738733206247, 0.0694963865465385, -0.03207591559999406, 0.06657018618772553, 0.024287754493087288, 0.028840822895202567, -0.06814848073057453, 0.07200065544733711, 0.053124038094010506, 0.05519380737838142, 0.07873677626653927, 0.004822202668894451, -0.017550736402396988, 0.04961016094641599, 0.06084228016788851, -0.06440338052233613, -0.059320706087061685, -0.014408422518177755, 0.03629746834163576, 0.0037536190966832583, -0.07517636905968027, 0.06526241246447811, 0.04680810886157352, -0.012955583450009855, 0.06150424670208879, -0.07655425007972663, 0.06707653773460315, -0.00854793556343747, 0.07380354374360443, -0.06614588264105395, -0.02360704563946593, -0.020356381828896417, 0.07373994763699973, -0.019540901253281076, 0.03379345072031133, -0.07234474546975357, -0.0762330520659101, 0.07723512037838784, 0.05902532625921916, 0.03005126669969692, -0.004445519403259018, -0.008109514400405513, 0.04439971240909729, 0.0026657092637004803, 0.04506122770775653, -0.07873033866714033, -0.04780484196537099, -0.030450932762370334, 0.03375986621113215, 0.06508080586821774, -0.02396087794247498, 0.013248382517607293, -0.06422634408141448, 0.056318592432033104, -0.028775726771667225, -0.0002464543466014907, 0.07937298011752952, 0.06317430307116259, 0.024689903135424213, 0.06772631365032225, -0.06880739634609274, 0.0711886594301295, 0.06124208479536572, -0.003223624194241867, 0.024921593055726665, -0.01102211131077574, -0.08040375624982876, 0.030512609201964566, -0.07013565918035979, 0.03744623374472722, -0.050400995940084625, -0.04083076341103814, -0.04830304334684764, 0.018154109953835193, 0.029610369582143817, -0.07086917610890515, -0.06016461644154604, 0.07628439954543484, 0.04048727170440859, 0.026575185702618423, -0.009086647702785708, 0.009803201860112326, -0.016734064421676964, -0.04773047659130003, 0.05284274107667661, 0.07684824956172939, -0.032718628596030565, -0.07933767642571787, -0.034884223078470784, -0.04387964224356068, 0.0034220641945167246, -0.06208849445824863, -0.03347733470953472, 0.013162995251135179, -0.06713376639242849, -0.06596515577433586, 0.029698325235923848, -0.02533336175245303, -0.05595241481850566, -0.016846603146195654, -0.03389009160985718, 0.03813279510205829, -0.021805445076628897, 0.0756035200035908, 0.044310435755681415, -0.005741216683854675, 0.060424191982539954, -0.04183384657675102, 0.04810838565793871, 0.07774136694344916, 0.050483102243966044, 0.076742349704092, 0.007239697780037621, -0.06310844943648913], [-0.07543122195494381, 0.018356019566138998, 0.032657728786604626, 0.021552933533262805, -0.042418614663606226, -0.03862217843392836, -0.0018758129964352999, -0.06823753610252224, 0.003161219726665554, -0.05772376090674451, 0.027281444820854775, 0.030715495332978168, 0.06843797898862702, 0.06662882218602992, 0.04288680535378554, 0.037362951752843085, -0.0497947732458583, -0.055760900597884355, -0.02497689380230645, -0.01674715247308614, -0.05115984602715566, 0.01270099216778571, 0.041028333153017654, 0.06938838044904308, -0.024070314654494593, -0.058900594118684924, -0.06500772592562486, 0.03151163927171885, -0.07624779447333033, -0.01994087052063414, -0.055261627061948954, -0.012870989517708625, 0.009249066574615439, -0.032794617172580795, -0.04647800086549919, 0.06455689589487165, -0.009340021301789903, 0.07874099784854285, -0.0687494357877581, -0.05746712290475345, 0.029591993938322375, -0.028444840959978457, 0.047353710282455025, -0.06835328843068582, -0.05056114517131865, -0.05018828818523961, 0.06239641461963902, -0.06387490869734594, 0.004919882858633165, 0.012890622609433133, 0.07695664060555937, 0.012895605545275662, 0.034712225179392917, -0.04310995469050329, 0.010225726136280436, -0.00028876875602584784, 0.06848431633102298, 0.02103320111434895, 0.01864819834902197, 0.04691745738671596, -0.045150370339189456, -0.059966216978947655, -0.006086509564019862, -0.07476403653096038, -0.05742675725411824, -0.058397316394508514, 0.06924287068178056, -0.07639202949471396, -0.07134927706320578, -0.04252236797075491, -0.07289519101676437, -0.055618168393527984, -0.0599307767292427, -0.03591733796285738, -0.06444373850162285, -0.003428347249224112, -0.060088734645272784, 0.07225525049803849, -0.009548660555167482, -0.01164158256788908, -0.05406324584568847, -0.011055081546382309, -0.030652806286898794, -0.043875123420307534, 0.07779996615393561, -0.07613714287318776, -0.03191539615979379, -0.038071358128519465, -0.003219065671378918, -0.0010686563464417792, 0.06789674899134546, -0.07985971633696573, -0.04488112141466432, 0.01988075620476272, -0.08009193746788972, -0.05560447666845468, -0.012408706603924069, 0.009005987192634818, -0.07817624908087363, 0.07723703817720526, 0.017828399759831873, 0.0325891679474269, -0.0025868374600325206, -0.06996759005987897, -0.016803486277065488, 0.07685795323297973, 0.03771163711718066, -0.07236047445443872, -0.05871956259254357, 0.058981579162226794, 0.07224628896360719, 0.0728182886930108, -0.008985469019689593, -0.06006907188836384, 0.009313510922543497, 0.01573360063013135, -0.06246076675808397, 0.060032676685524006, 0.045788390654289496, 0.03447144020729555, 0.007969447662957069, -0.0389992035414816, 0.06679915341401255, -0.019928787608241898, -0.01967295672594832, -0.08012282366462595, 0.04374749536211213, -0.05645890444593887], [0.03943769694168302, -0.0603294169738174, -0.059048055613130465, 0.060897010095984444, -0.07424932443571967, 0.0666023868789809, -0.027898960979955444, -0.0246014947742004, 0.029086436921289885, -0.06734274879985823, -0.03484857484967542, -0.056620626433929094, 0.039276042794914104, -0.07543719025934248, 0.05335366189879803, 0.023403079029102797, -0.004823448433044164, -0.07674856238827807, 0.0708901056747841, -0.07977400779283034, -0.08003386425355936, -0.017425988808098355, -0.07230961965064994, 0.021650458889070717, 0.0002792091092718163, -0.05586811384938078, 0.022348572451381277, 0.06687465482103785, -0.045125774100878493, -0.0527163346178406, -0.04122539344557936, -0.02745132621729396, 0.06278463123288508, -0.02420933839991818, 0.03607574478767114, 0.004144376023930085, -0.01673146048099458, -0.03557612912440692, -0.04554623248605829, 0.019327933764697935, -0.03243750658866019, -0.013611299340784394, -0.02838466408870355, -0.05181387480895868, -0.007095674599341004, 0.07360891629933464, 0.0011935523884247373, -0.07755040609170455, -0.03549699472658132, -0.05615860967396705, -0.04806231178686897, -0.0037353662839179624, 0.0794342592775362, 0.06317660066950026, 0.02605215735450836, 0.030240157014581284, -0.05920510755002771, -0.012001109028607529, -0.033772758077489695, 0.05848371027545746, 0.01886312203177938, -0.012790716233080174, -0.006353406396076192, -0.02663838401414375, -4.904991667170622e-05, 0.02651870013824531, -0.03127010786189745, -0.012428341039946597, 0.04261918091418747, 0.004457146178963492, -0.06921467884461564, 0.0629326176867954, 0.02550848379896553, 0.003995641694362381, 0.022816528201520483, -0.04232568564264625, -0.043855402004675054, 0.039932141142094035, -0.027338089473983522, -0.02716501433227509, -0.07325076431892397, -0.006543723080146863, -0.068395100531775, -0.008812994994172957, -0.030424404184978632, 0.012510652328181729, 0.014085003188640352, -0.031298710266401304, -0.07710671312590725, -0.04485249956565107, 0.06692878037699437, -0.003982773417465557, 0.06217977760836038, -0.008979174919796773, 0.0594347883918557, 0.016035955340563693, -0.05734802542934668, -0.07209027257716095, -0.06523821146849212, -0.01890205271349632, -0.04933634549197169, -0.03347596800813591, 0.05971024211399248, 0.07078801194269937, 0.023280123747876774, 0.05295162950131968, -0.0057208065183697865, 0.015972892016305834, -0.006229615496183463, 0.010400982986026847, -0.05883272623349729, -0.018183801242813685, 0.030357598922922488, 0.024309775999651853, 0.0694399307315218, 0.06152469563605836, 0.06125910339958493, -0.0074994464168390285, -0.0010284931153048127, 0.03925686931720006, 0.033396126815521274, 0.008866258711742653, -0.07248955239136955, 0.0077414488343336835, -0.04902202224406415, -0.0648763479621989, -0.05108962394791983, -0.07096581184782116], [0.03347086693423339, 0.02582829944641847, -0.04795800434165722, -0.06041994429662749, -0.07939162526577777, -0.003004708976162146, 0.05309952043277427, 0.030634797157052876, 0.04550780319360295, 0.06848459547742403, -0.018494081863931422, -0.020502807992159117, -0.009057041167835692, -0.078276923219819, -0.043129250819422524, -0.03721958505251125, -0.03701276464748748, 0.013379689418513765, -0.07158321449822351, -0.05720920016641243, -0.06682546227110822, 0.01634534850565468, 0.024135457656047785, -0.014554690397040784, 0.04417071413325063, 0.015042705721592553, -0.07262457138750691, -0.01828296166460934, -0.051405590612002464, -0.06813848411548085, 0.07857260520157816, -0.06268144616015467, -0.0338548821945318, 0.011055145780512879, -0.025549374121816328, -0.020765345900332036, 0.05285235381618991, 0.05551354296527286, -0.038831658380689034, 0.020757269051586952, 0.043013833309844846, 0.07041986778038942, -0.07153633843320194, -0.0089813813185661, 0.010710052712600088, -0.025294167712722165, -0.07678207438888285, 0.020987321102468218, -0.008336280155175832, -0.060821510455917764, 0.030747269745041855, 0.05974076761544467, 0.01656424871978307, -0.03824454088371194, 0.020992995964728978, 0.03709422304674924, -0.04011946756731882, -0.05503634382098256, -0.07062754103756351, 0.029581808247293076, 0.05965512607419085, 0.07128344122106217, 0.027110872451674317, 0.07155400835396761, 0.07044508291431864, 0.06868339343779908, 0.0647507396320541, -0.025147769721661432, 0.001856217672853419, 0.06305650361853332, -0.06701367931311662, -0.04094769832102745, -0.05797113493880239, 0.07774483472488511, -0.0679962646166571, -0.024935870044927887, 0.03772675848672184, 0.07875510307418868, 0.004801736416104041, 0.01740698107178429, -0.06612626066405641, 0.018357644075585114, 0.03796852719023221, -0.058391302407447145, -0.07864486537883747, -0.015476961690206917, -0.06167813858917374, -0.007180544620839932, 0.0247394397869133, -0.023474096964688877, -0.03678035798378934, 0.06794135579690275, -0.07248844908885611, -0.06029565625759369, 0.04155782307400627, 0.07525738306589883, -0.07921582113429594, -0.04614986441440549, -0.08041783389104247, 0.02519936134326238, -0.07380043207573225, 0.04913152779100541, 0.01823770166224968, -0.015111800640970188, 0.06847347965530756, -0.04140583218175906, 0.045824975375356874, -0.05846957346113429, -0.0013717277107740677, 0.051480022604158154, 0.06797024654355635, -0.006562916428644441, 0.06806261544200246, 0.05612043905921016, -0.0676444131333135, -0.033682167490230924, -0.05712266493778956, 0.036355846376441875, 0.06889659922383434, -0.04309231469404212, -0.03060575483507362, 0.05849198012589374, -0.0015744167372142015, 0.015270629317440679, -0.0623022900648509, -0.036915575043594585, -0.019853596567920073, -0.04058043898445472], [-0.0798469859460086, -0.04822054684292309, -0.03385161009522076, 0.06687972716714011, -0.04920100086160276, 0.004804405238789944, 0.061041906286683295, -0.038480841355302664, 0.014485483616451966, 0.0750702942015864, -0.060454533621652304, -0.07112788652268018, 0.03744347191738803, 0.057563010111025104, -0.010118223113255137, -0.07098910195480121, 0.06263982045948696, 0.00484202102650845, 0.010992168901833368, -0.04280691166044018, 0.03502927211149441, -0.04891888520087861, 0.007803048893757547, 0.07405685692215683, -0.07327318436293977, 0.037220431972558865, 0.07742605755795257, -0.010979303296456952, 0.048537509125411216, 0.027527886114719388, -0.07427366050214913, -0.03311985212995586, 0.015516351235572587, -0.015447268993016808, 0.015564208144130606, 0.04187970090936191, -0.01890480761824441, 0.058893275552097585, 0.04503803814032428, -0.04033516128843391, 0.05844151919691665, 0.020578048404499102, 0.04288138714322831, -0.07440151038840151, -0.03983276614761503, 0.00134908993548373, 0.061115253551974336, -0.06741911566643319, 0.004790224045549435, -0.03503217693721882, -0.018839406198880526, -0.02165286856199127, 0.0459203322743344, -0.06464593608119379, 0.06571211471258917, -0.04574562931046027, 0.008557478644003816, -0.04512625947099574, 0.010774305909091175, -0.05647491393769383, 0.03349682122127985, -0.01298878683697656, 0.02690092251068449, -0.0383997961542356, -0.020840192910706455, 0.048464989071069, -0.06335507198499976, -0.005899316171758789, -0.0582347249044006, -0.02699205916060933, -0.010103985507200153, 0.02806660392671434, -0.04400266646149045, 0.07450783085583687, -0.05569924937523099, -0.07662294813226347, -0.060954474228736275, -0.03480383206467153, -0.06967193309385133, 0.018492315002130444, -0.011419144678975035, 0.0580349947586154, -0.0024594265532769943, 0.055771635412687426, -0.015152398809088016, 0.05167355683275679, -0.024054060936336823, 0.02997946010609663, -0.06930032036202534, -0.030440718799808864, 0.032631143017528966, 0.04337300653955023, 0.0788600002182947, 0.04047026350277447, -0.007259022905188983, -0.0413688819114344, -0.08086890670957839, -0.0013723491265549698, 0.008827198202223788, -0.01293835618381138, 0.06050788388387093, 0.06546691555795436, 0.05662476482201015, 0.03088462259374805, -0.02332928708905125, -0.009767230256787787, 0.03631815428050651, -0.07513936229234996, -0.06426206205548735, -0.00659382143530278, -0.03563062425997587, 0.0690421889206308, 0.012819458068561843, -0.050061701797343525, 0.08008142091994466, -0.010685024081825992, -0.009322695570963394, -0.076485742865655, -0.05658260097862048, 0.0717745204212244, 0.041117527871373946, -0.03499330953745939, -0.001489870144284089, -0.062242699976788045, -0.00035142313343543286, -0.01879891627741003, -0.0036306622921949694, -0.006663063758238219], [-0.03800061370506306, -0.03276923958610869, 0.022636384902468706, 0.062377432900938085, 0.015591412658728376, -0.028578028339650986, 0.03640398184082372, -0.038832827849492796, -0.05698191483039754, 0.08087123772785376, -0.05260726752339259, -0.04998568605399919, -0.03247373501261585, -0.016018124417151655, 0.01827918488193593, 0.06269813093920987, 0.01476718420173899, -0.0329335194702645, 0.022510158816613862, 0.0010905464415136845, 0.05503555879725175, 0.03261717832141488, 0.04299793476576594, 0.042331645700605144, -0.051306475050602, 0.046360000361934994, -0.036860427815345195, -0.02599453507864244, -0.020421844960267853, 0.015539809380311409, -0.006492658098079057, -0.068576091723653, 0.06923195253166747, 0.06853801612810276, 0.07084792269472465, 0.08080714739725642, -0.018516275128528548, 0.02990098444384491, 0.020141833988742808, 0.05390088913219171, -0.0007175803987184148, 0.02647703561205539, 0.04416369352637872, 0.05038929617887691, -0.05647648475528671, 0.042162111083490494, 0.04828269767170121, 0.06590641686087237, -0.010375340054858767, 0.041005249949166614, 0.07666817356718114, -0.06521991362005546, -0.04233943543300026, 0.017725316087870924, 0.04797602174825771, -0.010898850391192524, -0.0711413576026478, -0.01633877450565925, -0.0372515310997827, 0.07899004680155394, 0.07119691250041596, 0.025068613919376773, -0.043932100639155, 0.059642029837212146, 0.0038819217563579173, 0.005245994065357279, 0.04637163418378509, 0.05341377573056294, 0.011246667038897581, -0.049955582676323794, 0.048141094174070115, 0.015411616188066038, -0.017293041998350106, 0.022106580064858272, 0.04821658319192382, -0.0065550303993314185, -0.061807361088415586, -0.027174813381039588, 0.013747780688162625, 0.06375665169693523, -0.04696511958167333, 0.06804588379192864, -0.04824181069338877, -0.009745523491361957, 0.05529386095860589, 0.0023247295316471406, 0.07675666755193894, -0.05793474139236397, 0.06645139070004133, 0.02360702154400067, -0.01199922280225428, 0.07536368934452278, -0.058488955479562815, 0.05164880066405622, 0.012202131444735961, 0.02557701019522063, -0.018688014452178416, 0.0489184577522421, -0.07299960262744232, -0.042338400968332725, -0.014795955879186279, -0.044080007054027336, -0.0439774389299196, -0.009306284337021423, -0.04892689961006871, -0.008592724243793953, -0.02476746440959142, -0.04975957755193453, 0.02473799940900727, -0.032994455274050184, -0.07318463493050656, -0.04508793493405367, 0.07374683104790969, 0.07805410682965572, -0.040931597736008206, 0.031136078792449534, 0.03328132498549821, -0.019471302750581038, -0.01072114349175722, -0.053262342921914285, -0.011785108457262244, 0.06662985023060208, -0.010046992595193427, 0.004793843966797107, 0.058018350405644514, 0.07449691624852006, 0.0051176966635057, 0.007009792819034591], [0.015020791072807557, 0.048081041964477794, 0.05603234659584186, -0.03923794802684963, 0.07339235851159576, -0.003060326167939234, 0.05402439493661107, -0.05945100543436804, 0.07593532300452188, -0.034842195066652294, -0.07368065339357767, -0.009074306767962989, -0.079033952053723, 0.023900938059638985, 0.0063479575096715285, 0.05671200267886209, 0.07425560648084517, -0.0625881971266098, 0.02125220604848166, 0.03277009314110224, -0.05704299975186816, -0.07056860533832698, -0.02185355519705289, -0.042525277476839846, 0.005375839711041483, -0.023914547641265216, -0.012534170354740165, -0.011968371536408895, 0.00964901363408556, 0.07946592287732959, 0.03106768588070037, -0.011704688011041853, 0.06412697501949555, -0.07771054986653207, -0.04956135555143801, 0.030944995772246395, 0.03539934513256984, 0.00384409480878746, -0.07056977043364364, 0.044057345875678, -0.07948079817262513, 0.07800624373818721, -0.05951043661988133, 0.026654131498924094, -0.06827191733037587, -0.007876993632368628, 0.08024569492448558, 0.0381772961549503, -0.03397159108853009, -0.008831420063825035, -0.007214199592182738, 0.06771220158862182, 0.055939551609604926, 0.027874906527734472, -0.03752641927318338, -0.05177722835960097, -0.037459999880211474, 0.03148636032832608, 0.04310804606315402, 0.06326133417155233, -0.03102627681685583, -0.021898963369955768, 0.008386157290849752, 0.03206275769942829, 0.007002454792116919, -0.03440408505952142, -0.02623890719744401, -0.017663964482907177, 0.06673893160068053, -0.06759196619421476, -0.07140472897755205, 0.07278633034791648, 0.011417397989424649, 0.06518474622284368, -0.0342787088348958, -0.02621043183689182, 0.035229100033419475, -0.011346171042840317, -0.031166493477055808, 0.00554581720734014, 0.0774114992316364, 0.07337473927757437, -0.05384760602094073, 0.009920052604849641, 0.021715302841508646, -0.014369282060080715, -0.023668401235955747, -0.009118962233753067, -0.03521218861367013, -0.00788537359870374, -0.04012222000488524, 0.012567087082119593, -0.078674869347872, -0.06481027741091379, -0.0647194420724454, -0.04227835504281728, 0.022611233635924682, -0.05517062138109065, -0.007238525055129674, -0.06645482502885003, 0.01553820917963962, 0.03261620903783277, 0.04763508430205968, -0.04957955630047589, 0.049425991123239255, 0.07434293865909986, -0.0759125150364525, -0.00973403766199199, -0.042086603667317764, -0.03370342078044544, -0.01915472589648002, -0.023878308699733647, -0.06066331539231966, -0.07325884447283924, -0.0802038058667875, 0.03218814235293904, 0.0407242551856728, 0.016283564350589544, -0.004648749186791687, 0.011813083589596957, -0.0301343595969494, -0.04529872026701384, -0.03294189314885175, -0.04310992469639267, -0.020150374975374703, 0.05362196181795645, 0.03808784769342806, -0.07840615373708819], [0.047698153251104825, 0.07850732941365918, -0.044702590526369504, -0.07476288456572969, 0.05636562921360963, -0.07529455605184082, -0.04412758707186957, 0.02236508711290225, 0.07393795640818407, 0.07283248118530161, 0.06272239457634424, 0.014799294247532499, -0.03555458698269166, 0.04757377064730001, 0.003385364137462224, 0.07562844514138614, -0.05382207740929923, 0.007372826148287812, 0.06445403631674357, -0.002148883182765765, -0.05609653566711369, -0.06894436411908966, -0.029825834381254697, 0.07112966225037531, -0.04466835391443428, -0.03556393683821825, -0.0380953968267602, 0.010370754961496212, 0.06919210906932047, -0.0461254417933595, 0.05265837751906585, 0.0126465197161241, 0.07332017687643974, -0.016521151884350188, 0.020431613110104704, -0.003470686650915447, -0.04296680479095021, -0.035943476641049035, -0.008487397639035277, -0.06000190841221667, -0.045513088988724325, 0.02094298620113623, 0.026429615221751232, 0.0433977827139202, -0.07810734580930687, 0.004329520630801789, 0.04508373051825765, -0.05100680458209487, 0.010493222916628145, -0.006593322839171065, -0.023211687622185097, -0.012674427928516224, 0.03763971334356421, -0.030043190222155833, 0.018597681484561285, -0.06233170409712458, 0.008540123952460274, 0.05436493012321092, 0.07714338336729543, -0.0578458473701399, 0.00816382788554694, 0.024252856067159226, 0.0004960962141618147, -0.07537880678857324, -0.003857592104683963, -0.02729822395244387, -0.06145398903098506, -0.06489671691812926, -0.0375956019296427, -0.05903135580136044, -0.054234481506072324, -0.027278023984351828, 0.056328858943922616, 0.07166209956595779, 0.020101455814025074, 0.013530752852939185, 0.07098647101923983, 0.07569670650561755, 0.0790701952473731, -0.06973429290840744, 0.03804712836510206, 0.015395681396246474, 0.03485077588198239, -0.07436274707653755, 0.0033996305964947016, -0.06563627165437112, 0.05673712944492082, -0.05090378667646507, 0.07847664434177115, -0.0007701249942307781, 0.07949237346462573, 0.000980517893412719, -0.06046045183951229, 0.0036866657075101394, -0.07456679331570938, 0.07903752794337746, -0.057788109638298404, -0.06759316475508129, -0.06504463502647898, 0.011573349414370077, 0.06251323252162341, -0.02511157196571321, 0.07973888156650907, 0.06690591462842119, 0.06144973400383885, 0.025726341638494146, 0.053958396318531776, -0.06018588679375117, 0.05610478273744632, -0.052751315402464444, 0.038142267248880896, 0.03378473854063141, -0.020306844418537785, 0.02819142371241036, 0.029899938991399005, -0.03592797705104297, 0.021122604354913824, 0.025201094224236747, -0.0016950289456446332, 0.06812814693001742, -0.0012490796993148007, -0.07471089820339818, 0.013535142546616266, -0.025771669141803642, -0.02295814836198129, 0.06184542634294335, 0.060480261408616065, -0.009163737370663921], [-0.010677182791213217, -0.04653653018444901, -0.0804740246039529, -0.0171119007076904, 0.04250324855892273, -0.005315861456377918, -0.023153389243196168, 0.044491052836716005, -0.007702475909074663, -0.0629826780755608, -0.06680145521333941, 0.004939235708017964, 0.05474554130490697, -0.04631791830590396, 0.07959659276275852, 0.0659573617812472, 0.01778078146320409, 0.004011460825083038, 0.07583761688565016, 0.038188559418496346, 0.07268873963540605, -0.003951573752598427, -0.047478100185912815, -0.060528476137872336, 0.01384866477381201, -0.05119262394412507, 0.016300798398660943, -0.010130648597986158, 0.020133261211339216, -0.03753241107367837, 0.06732046107238475, -0.036745339134587336, 0.015605815066150629, -0.05431149309147192, 0.060959635371529514, 0.004960208651891249, 0.07359399783413205, -0.043195761946778224, 0.023246337327412908, -0.03327111397360713, 0.06455913371894527, 0.011031388946120727, 0.03061066282947827, 0.00962488694502069, 0.06824182541141473, -0.0516004485951152, 0.013776791492744595, 0.02196032466102403, -0.05168824706918384, -0.04244837513367466, -0.0058809706715812204, -0.013214376620565474, -0.001814694855788045, -0.0001408998390282773, -0.06385389828649309, 0.07460764150922104, -0.04266965035403783, -0.001866504219641887, -0.07212461227137523, 0.05675744483507189, -0.05964753412161396, 0.024182453170531, 0.033181261388111276, -0.0677398120226878, 0.06236907917739288, -0.009066381619132943, 0.020181437970494685, 0.04978628552239564, -0.05968974177474881, -0.005811877436617818, 0.026070832119047344, 0.03168996717630416, 0.030726671713996682, -0.079451610331961, -0.002134949894669891, 0.023634552689496685, -0.04501985352731225, 0.06873033583772659, -0.07787886746747953, 0.07591235025269613, 0.010278669680254189, -0.00837351076392186, 0.06135600041175035, 0.06769249404390851, 0.051149086418513935, 0.0007937377031613096, 0.07810615642156532, 0.02097892215153538, 0.021031801451349086, 0.040345504107104566, 0.04094795291863773, 0.025490003978793065, 0.015120128171578486, 0.059630710327974394, -0.0074505558344811484, -0.06596917778135444, 0.00627810425528436, -0.007042970386669396, -0.07926428219838756, -0.07433484178659014, 0.07695781443589295, 0.054622231031562725, 0.02226226884751861, -0.07863694411532746, -0.042054944223807456, 0.04018794437023962, -0.03305413962304063, 0.06418740762731749, -0.06386859673986546, 0.019310620642906794, 0.06951497896284384, 0.05757577459290431, 0.06428098902713392, 0.003465854353981164, -0.018613213788448768, 0.03175805382323657, -0.06877335958294747, 0.015129824711022408, 0.027471344146571895, 0.0721315809340555, -0.030084359027599903, 0.008978403259447229, 0.051790524090551834, 0.0072796056307812135, -0.036976543012697434, -0.01750753439938923, -0.07379814393456116, -0.06286605861759949], [0.03770196063585685, -0.0001501111391749299, -0.06568971850710498, 0.027381694872122928, 0.008271175887641414, -0.00697986535958173, 0.06596180217643248, 0.05771761460654765, 0.031107713861258116, 0.029129656683964958, -0.03167369032338162, 0.04050664983262568, -0.0026110026986773905, -0.03058684069490564, 0.06248320955231934, 0.054255451122512406, 0.002722529368361444, 0.0662140232501503, 0.0714860905475191, -0.01793117336431921, -0.0005212875432755877, 0.07233519202298351, -0.049238727409619515, -0.014885585232546556, 0.0027758312482177587, -0.019304207458835335, 0.07341433577498174, -0.036345781072970006, -0.07256250834627644, -0.04873027281902855, 0.07710393287555314, 0.027488289239065974, 0.04710534668604994, 0.004190745679260536, 0.03754815602184165, -0.05083955426934635, -0.025819003604734464, 0.020863305336956562, 0.02382269481502372, 0.04641316929489839, -0.06034228669674458, -0.029308911124772456, 0.04915307165960032, -0.07855492614242157, -0.06377021130394517, 0.05566212062506857, 0.025617460189359502, 0.027008267044544634, 0.002511461255487679, -0.013780178491565933, -0.06111034100351609, 0.07633314304306663, -0.08098622083963308, 0.04281181497461051, 0.007840951998151456, -0.05669533619912109, 0.013090371264536394, -0.022520693452187563, -0.031673271560081255, 0.03526158917161572, 0.02098571935052382, -0.02914642586201459, -0.0682469972694436, -0.005829184836725318, 0.05847620412743425, -0.016576616639172436, -0.066132594366875, 0.05934972334155961, 0.07125020954041213, 0.07991387773630235, -0.057428297906556736, 0.02872301441420139, 0.04318020781200317, -0.045063308803940015, 0.0365917664784296, -0.07517363948504938, -0.02877704084615908, -0.03596637536522755, -0.06510991224252091, 0.0016390075429237774, 0.0424011195344005, -0.007108696647073154, 0.041542130892390394, -0.059293824298724415, -0.024475687905111006, 0.03725428734993719, -0.018886954759361134, 0.007079587836261587, 0.04856933885546699, -0.03539573495450587, -0.030710198537245707, 0.07420216522481567, 0.06655603175324772, -0.013834495820586165, 0.012686035858812672, 0.0021356396244409334, -0.014921704681952894, -0.02390470715611406, -0.002608841208066792, 0.022760351859554787, -0.06322192540794232, 0.006498280600140059, 0.019226040114249367, -0.0024395581808333514, -0.03607361334231016, 0.01082045377209308, 0.020726701397734533, 0.013494198183224131, 0.0592780332487517, -0.041681055672438266, -0.07348833652785912, -0.0738413045086478, -0.01810977848797307, 0.004481733311037738, -0.04411889515677602, 0.05617283702130885, 0.0138268911892683, -0.08008293228715234, 0.011367365816255623, -0.03782767991337454, 0.024088433770507213, 0.024670931750433205, 0.08052227578906165, -0.07523675421674085, 0.032226709095183693, -0.06142215279607337, -0.05634031475000998, -0.0683726286229778], [0.03188313531298983, -0.0199968333626632, 0.06440969120484397, 0.009334270319831578, -0.017307920917180364, 0.03352184792447171, -0.07813133963652365, -0.023832491978555703, -0.04829281734897774, 0.06697269131995867, -0.06760588470244268, 0.03968450499012591, 0.03034223931518624, 0.061289667286279575, -0.07573551363927429, -0.057919442147754394, -0.05837082176403797, -0.07226616283936099, -0.01811626049730165, -0.0014546861148825585, 0.02880149486867564, 0.056649316108785486, 0.005840019246387084, -0.046549046998778064, -0.014589096443821696, -0.0048461338123701415, 0.0050732231993930515, -0.025928232160616158, 0.07827804376235276, -0.03197434063459253, 0.032652375916156065, -0.02298889618235997, 0.06261009221865255, -0.07856292393757937, -0.05351388796581201, 0.03244693382148944, -0.07482496510450436, -0.08003288934409222, -0.019943316162841992, -0.05237432946012325, -0.03316575126748198, 0.07458160485652524, 0.01796360020081532, 0.052875100402694664, 0.00705546814579422, 0.07471016337470536, -0.06576854870412872, 0.055576583304330116, -0.02324391733084337, 0.07490134538988653, -0.005301055116449691, -0.017924496821633655, 0.0009434580231264449, 0.02738022290649789, -0.02361063192759751, 0.01940689495812366, -0.05252937057772812, 0.03289451883333247, 0.013149901647867506, 0.01741645411399534, -0.005970598643207921, -0.07787594429042582, 0.050043308394047935, 0.03432094781792862, 0.041481716384325976, 0.04275951735985897, -0.0021916453076221147, 0.07613810943203261, 0.0012963282240837787, 0.07254623419253889, 0.02753139765502185, -0.025672289724539804, -0.045225254874254286, 0.07341448385193888, -0.05092100424085909, -0.061629460744980824, 0.017245393671130788, -0.010170727866327497, -0.007067542022122155, 0.016004434349253718, 0.03344399723697536, 0.020897709750790045, 0.049585317887379216, -0.033769977097851206, 0.019738470927072743, 0.035887868042549134, -0.060173070029341184, -0.012472216850961922, 0.00031233312138136127, -0.05483960761525668, -0.08017119105455747, -0.027184117161229274, 0.0667056800953267, -0.07312815378192582, -0.05934360680478392, 0.04781037751521413, -0.037871759257730786, 0.03169678447276947, -0.002950858425039734, -0.015423094292734835, 0.07281795483484915, 0.004984614193991899, -0.0736674341115672, -0.003885138895926944, -0.008471396735142966, 0.01587612664831848, 0.04236331906527751, 0.035938220031903445, 0.06926235536217115, -0.035144408094225504, 0.032236262500469216, -0.07481336662181241, 0.0430498695200236, -0.037602612586256266, -0.06591038352439989, -0.014148100808188768, -0.049225422879597025, -0.012082775546436247, -0.02016123765933874, 0.05482666801572411, 0.05252626756962169, -0.07026471868158336, 0.05625790909608033, -0.028644345571290523, -0.02535156144299763, 0.021423598879083364, 0.041044980389152254, 0.0574558066039969], [0.04668398750657806, -0.04036605189961865, 0.05755045049207522, 0.06962056417552429, 0.03604405969881553, 0.008069841168167002, 0.07926845538001852, -0.002166662659091952, -0.05054025859897705, 0.061255481355616474, 0.07606349156571618, 0.07526568850234996, 0.07274064715684786, 0.07091288475463242, 0.03301825457757618, 0.009796043356305696, 0.03673404725472, -0.013955621203364745, 0.06621303924406025, 0.0030422665790806962, 0.005886318764875243, -0.05355168590321258, 0.040726659706468736, -0.04380890661914418, 0.01286007784152771, -0.0216611765335063, -0.003272153185594316, 0.01802391265217732, -0.05312607587630782, 0.06144492901547193, -0.06428142593951602, -0.038765821696057225, -0.05028023513309185, 0.00888956295713909, 0.009434424830904386, 0.001483861067959477, -0.07991465940229457, 0.004188489117634262, 0.007417818945891316, -0.0397889429934338, 0.053916109602298805, 0.022791259960653083, -0.005914504608761624, 0.024960971844529587, -0.055045202379940136, 0.006589868898413419, 0.05127192101646769, -0.074451280484721, 0.0065182721050281835, -0.04441291073282837, -0.04953682857113097, 0.06292233181588736, 0.054904189613977195, -5.235634489260121e-05, -0.028388133961229665, -0.008709277884876094, 0.07990242245172743, 0.05421472472156538, -0.06868669505792682, 0.005202855170804865, 0.029864236218573915, -0.060886514188375804, 0.014553646652036, 0.057170713861544306, -0.0638937573957935, 0.03737076668720983, -0.07152719572443259, -0.04826759322748164, -0.08101363137152144, 0.06617185414094241, -0.04441969510154303, 0.015423504684440693, -0.019668847227254586, -0.026449902247869618, 0.004360088229669669, 0.03585310716022, 0.032567065584113576, -0.0004955758986152515, -0.06702244222650038, 0.003868716875208169, -0.03613507205639515, -0.048342057860356835, -0.07239680118890876, -0.05444233113503833, 0.03778877559292174, -0.05919041476698306, -0.010257286305949147, 0.004410356866281754, 